{"learner":{"attributes":{"scikit_learn":"{\"_estimator_type\": \"classifier\"}"},"feature_names":[],"feature_types":[],"gradient_booster":{"model":{"gbtree_model_param":{"num_parallel_tree":"1","num_trees":"100"},"iteration_indptr":[0,1,2,3,4,5,6,7,8,9,10,11,12,13,14,15,16,17,18,19,20,21,22,23,24,25,26,27,28,29,30,31,32,33,34,35,36,37,38,39,40,41,42,43,44,45,46,47,48,49,50,51,52,53,54,55,56,57,58,59,60,61,62,63,64,65,66,67,68,69,70,71,72,73,74,75,76,77,78,79,80,81,82,83,84,85,86,87,88,89,90,91,92,93,94,95,96,97,98,99,100],"tree_info":[0,0,0,0,0,0,0,0,0,0,0,0,0,0,0,0,0,0,0,0,0,0,0,0,0,0,0,0,0,0,0,0,0,0,0,0,0,0,0,0,0,0,0,0,0,0,0,0,0,0,0,0,0,0,0,0,0,0,0,0,0,0,0,0,0,0,0,0,0,0,0,0,0,0,0,0,0,0,0,0,0,0,0,0,0,0,0,0,0,0,0,0,0,0,0,0,0,0,0,0],"trees":[{"base_weights":[4.206158E-4,-1.7887992E0,1.5485526E0,-2.062034E0,5.152258E-1,3.8607724E-2,1.7368672E0,-2.1097538E0,8.9585714E-2,-1.1345984E0,1.3267531E0,8.8012385E-1,-5.095051E-1,5.241376E-1,1.8098944E0,-2.3538026E-1,-6.400335E-1,-9.558143E-2,-4.1643402E-1,8.9585714E-2,4.6001866E-1,-3.633375E-1,1.3589474E0,-4.1643402E-1,4.4150946E-1,1.7217465E-1,5.4630196E-1,8.9585714E-2,4.6714002E-1],"categories":[],"categories_nodes":[],"categories_segments":[],"categories_sizes":[],"default_left":[0,0,0,0,0,0,0,0,0,0,0,0,0,0,0,0,0,0,0,0,0,0,0,0,0,0,0,0,0],"id":0,"left_children":[1,3,5,7,9,11,13,15,-1,17,19,21,-1,23,25,-1,-1,-1,-1,-1,-1,-1,27,-1,-1,-1,-1,-1,-1],"loss_changes":[5.424117E2,5.8248016E1,2.9784271E1,9.800507E0,1.5470394E1,2.0005375E1,7.315918E0,8.350525E-1,0E0,3.8066244E-1,1.1254053E0,1.0847742E1,0E0,1.4197404E1,1.581726E-1,0E0,0E0,0E0,0E0,0E0,0E0,0E0,1.2053747E0,0E0,0E0,0E0,0E0,0E0,0E0],"parents":[2147483647,0,0,1,1,2,2,3,3,4,4,5,5,6,6,7,7,9,9,10,10,11,11,13,13,14,14,22,22],"right_children":[2,4,6,8,10,12,14,16,-1,18,20,22,-1,24,26,-1,-1,-1,-1,-1,-1,-1,28,-1,-1,-1,-1,-1,-1],"split_conditions":[2.7685642E-1,4.6632302E-1,2.4085487E-1,7.881613E-2,3.6140725E-1,1.8937299E-1,2.2468017E-1,5.360846E-2,8.9585714E-2,2.0933378E-1,2.9390836E-1,1.775448E-1,-5.095051E-1,3.6481112E-1,2.5097048E-1,-2.3538026E-1,-6.400335E-1,-9.558143E-2,-4.1643402E-1,8.9585714E-2,4.6001866E-1,-3.633375E-1,3.2702062E-1,-4.1643402E-1,4.4150946E-1,1.7217465E-1,5.4630196E-1,8.9585714E-2,4.6714002E-1],"split_indices":[22,27,7,13,21,17,21,14,0,1,5,1,0,7,4,0,0,0,0,0,0,0,1,0,0,0,0,0,0],"split_type":[0,0,0,0,0,0,0,0,0,0,0,0,0,0,0,0,0,0,0,0,0,0,0,0,0,0,0,0,0],"sum_hessian":[1.9382008E2,8.983722E1,1.03982864E2,8.04068E1,9.430427E0,1.1663949E1,9.231892E1,7.891778E1,1.4890147E0,2.9780295E0,6.4523973E0,8.189581E0,3.4743676E0,5.70789E0,8.661102E1,1.985353E0,7.693243E1,1.2408457E0,1.7371838E0,1.4890147E0,4.9633827E0,1.2408457E0,6.948735E0,1.7371838E0,3.970706E0,1.2408457E0,8.537018E1,1.4890147E0,5.4597206E0],"tree_param":{"num_deleted":"0","num_feature":"30","num_nodes":"29","size_leaf_vector":"1"}},{"base_weights":[1.002755E-2,-1.4294561E0,1.1453787E0,-1.4981583E0,2.961716E-1,-1.9137117E-1,1.3778859E0,-1.5389988E0,6.519926E-2,-1.2728573E0,6.0859185E-1,1.8885127E-1,1.4656249E0,-1.5753709E0,2.6786378E-2,-4.431101E-1,-4.7072697E-2,1.1687682E0,-8.101929E-1,-3.7307054E-1,3.6296487E-1,4.4317487E-1,1.0257953E-1,-4.7735316E-1,-1.0462411E-1,4.0195885E-1,7.3084004E-2,-6.962496E-2,-3.016774E-1],"categories":[],"categories_nodes":[],"categories_segments":[],"categories_sizes":[],"default_left":[0,0,0,0,0,0,0,0,0,0,0,0,0,0,0,0,0,0,0,0,0,0,0,0,0,0,0,0,0],"id":1,"left_children":[1,3,5,7,-1,9,11,13,-1,15,17,19,21,23,-1,-1,-1,25,27,-1,-1,-1,-1,-1,-1,-1,-1,-1,-1],"loss_changes":[2.9635815E2,1.4755157E1,3.1770401E1,5.809601E0,0E0,1.4528497E1,8.744568E0,4.6686096E0,0E0,1.3820839E0,8.7473955E0,1.1874518E1,5.448761E-1,8.9604187E-1,0E0,0E0,0E0,8.5220146E-1,1.4716697E-1,0E0,0E0,0E0,0E0,0E0,0E0,0E0,0E0,0E0,0E0],"parents":[2147483647,0,0,1,1,2,2,3,3,5,5,6,6,7,7,9,9,10,10,11,11,12,12,13,13,17,17,18,18],"right_children":[2,4,6,8,-1,10,12,14,-1,16,18,20,22,24,-1,-1,-1,26,28,-1,-1,-1,-1,-1,-1,-1,-1,-1,-1],"split_conditions":[2.5942528E-1,6.0652924E-1,2.5193837E-1,3.5207534E-1,2.961716E-1,3.8432837E-1,2.2468017E-1,7.067952E-1,6.519926E-2,2.937118E-1,1.0558176E-1,3.4115973E-1,3.2272726E-1,7.881613E-2,2.6786378E-2,-4.431101E-1,-4.7072697E-2,2.1256188E-1,2.9491284E-1,-3.7307054E-1,3.6296487E-1,4.4317487E-1,1.0257953E-1,-4.7735316E-1,-1.0462411E-1,4.0195885E-1,7.3084004E-2,-6.962496E-2,-3.016774E-1],"split_indices":[22,27,7,0,0,21,21,24,0,28,15,20,16,13,0,0,0,11,20,0,0,0,0,0,0,0,0,0,0],"split_type":[0,0,0,0,0,0,0,0,0,0,0,0,0,0,0,0,0,0,0,0,0,0,0,0,0,0,0,0,0],"sum_hessian":[1.793325E2,7.896089E1,1.00371605E2,7.71478E1,1.8130933E0,1.4897665E1,8.547394E1,7.5454346E1,1.6934527E0,6.0829105E0,8.8147545E0,6.0903397E0,7.93836E1,7.383749E1,1.6168586E0,4.8685765E0,1.2143338E0,6.4459357E0,2.3688188E0,2.4438605E0,3.6464791E0,7.825937E1,1.12423E0,7.2604706E1,1.2327802E0,5.0616035E0,1.3843318E0,1.1510481E0,1.2177707E0],"tree_param":{"num_deleted":"0","num_feature":"30","num_nodes":"29","size_leaf_vector":"1"}},{"base_weights":[1.2346002E-2,-1.1034771E0,1.0696914E0,-1.2888973E0,3.6974505E-1,2.85619E-1,1.2845112E0,-1.3282889E0,8.24771E-2,-7.654909E-1,9.7056895E-1,-7.8874576E-1,8.9744544E-1,4.752675E-2,3.9135426E-1,-4.554451E-1,-1.3499371E0,-3.3078607E-2,-3.0165353E-1,5.7815276E-2,3.4204152E-1,-3.9298055E-1,1.7432627E-1,-1.7228237E-1,3.6069408E-1,-2.0974632E-1,-9.5685804E-4,-4.1401616E-1,-7.765471E-1,-2.8554848E-1,2.2697379E-1,8.9871526E-2,-3.2610974E-1],"categories":[],"categories_nodes":[],"categories_segments":[],"categories_sizes":[],"default_left":[0,0,0,0,0,0,0,0,0,0,0,0,0,0,0,0,0,0,0,0,0,0,0,0,0,0,0,0,0,0,0,0,0],"id":2,"left_children":[1,3,5,7,9,11,13,15,-1,17,19,21,23,-1,-1,25,27,-1,-1,-1,-1,-1,-1,29,-1,-1,-1,-1,31,-1,-1,-1,-1],"loss_changes":[1.8296844E2,2.1089699E1,1.3044205E1,4.5077286E0,7.0268097E0,1.2808745E1,1.1946869E0,6.27861E-1,0E0,4.7849083E-1,6.330509E-1,5.910111E0,4.185008E0,0E0,0E0,3.3954012E-1,2.7748108E-2,0E0,0E0,0E0,0E0,0E0,0E0,3.3122923E0,0E0,0E0,0E0,0E0,2.151213E0,0E0,0E0,0E0,0E0],"parents":[2147483647,0,0,1,1,2,2,3,3,4,4,5,5,6,6,7,7,9,9,10,10,11,11,12,12,15,15,16,16,23,23,28,28],"right_children":[2,4,6,8,10,12,14,16,-1,18,20,22,24,-1,-1,26,28,-1,-1,-1,-1,-1,-1,30,-1,-1,-1,-1,32,-1,-1,-1,-1],"split_conditions":[2.7685642E-1,4.6632302E-1,3.3512625E-1,7.881613E-2,3.6140725E-1,3.6140725E-1,1.5095846E-1,1.5484433E-2,8.24771E-2,2.4284902E-1,2.2550759E-1,4.2613748E-1,3.3727545E-1,4.752675E-2,3.9135426E-1,2.766317E-1,5.6476545E-1,-3.3078607E-2,-3.0165353E-1,5.7815276E-2,3.4204152E-1,-3.9298055E-1,1.7432627E-1,3.7952578E-1,3.6069408E-1,-2.0974632E-1,-9.5685804E-4,-4.1401616E-1,5.2553266E-1,-2.8554848E-1,2.2697379E-1,8.9871526E-2,-3.2610974E-1],"split_indices":[22,27,22,13,21,21,26,19,0,17,28,24,4,0,0,1,21,0,0,0,0,0,0,0,0,0,0,0,1,0,0,0,0],"split_type":[0,0,0,0,0,0,0,0,0,0,0,0,0,0,0,0,0,0,0,0,0,0,0,0,0,0,0,0,0,0,0,0,0],"sum_hessian":[1.5308243E2,7.446034E1,7.8622086E1,6.624753E1,8.212814E0,1.7409302E1,6.1212784E1,6.476671E1,1.480818E0,2.7474794E0,5.4653354E0,6.2119594E0,1.1197342E1,1.224042E0,5.9988743E1,2.10083E0,6.266588E1,1.1278812E0,1.6195983E0,1.3605785E0,4.104757E0,4.5315413E0,1.6804184E0,2.5798838E0,8.617457E0,1.010415E0,1.0904151E0,5.820205E1,4.463827E0,1.3892403E0,1.1906435E0,1.007401E0,3.456426E0],"tree_param":{"num_deleted":"0","num_feature":"30","num_nodes":"33","size_leaf_vector":"1"}},{"base_weights":[1.1378928E-2,-1.0615664E0,8.8805276E-1,-1.1356882E0,4.3484026E-1,-1.3474347E-1,1.101242E0,-1.1824763E0,7.959445E-2,-5.2993704E-2,2.2973354E-1,-7.299146E-1,7.19189E-1,9.521393E-2,1.184426E0,-1.1971897E0,-6.4979956E-2,-3.478675E-1,3.4239614E-1,3.186996E-1,-9.322321E-2,-2.7562872E-1,2.7154684E-1,9.0051174E-2,3.5959244E-1,-4.7518554E-1,-1.2236203E0,2.1393277E-1,-6.226671E-2,2.8931642E-2,-2.249477E-1,-3.7770894E-1,-1.8052459E-1],"categories":[],"categories_nodes":[],"categories_segments":[],"categories_sizes":[],"default_left":[0,0,0,0,0,0,0,0,0,0,0,0,0,0,0,0,0,0,0,0,0,0,0,0,0,0,0,0,0,0,0,0,0],"id":3,"left_children":[1,3,5,7,9,11,13,15,-1,-1,-1,17,19,21,23,25,-1,-1,27,-1,-1,-1,-1,-1,-1,29,31,-1,-1,-1,-1,-1,-1],"loss_changes":[1.2047071E2,6.882164E0,1.5515923E1,3.9291153E0,8.316843E-1,7.1560535E0,4.776993E0,5.0177765E-1,0E0,0E0,0E0,4.1678843E0,2.4019845E0,5.3894444E0,3.17482E-1,4.2099762E-1,0E0,0E0,7.8274465E-1,0E0,0E0,0E0,0E0,0E0,0E0,6.2021077E-1,3.442917E-1,0E0,0E0,0E0,0E0,0E0,0E0],"parents":[2147483647,0,0,1,1,2,2,3,3,4,4,5,5,6,6,7,7,11,11,12,12,13,13,14,14,15,15,18,18,25,25,26,26],"right_children":[2,4,6,8,10,12,14,16,-1,-1,-1,18,20,22,24,26,-1,-1,28,-1,-1,-1,-1,-1,-1,30,32,-1,-1,-1,-1,-1,-1],"split_conditions":[2.5942528E-1,7.067952E-1,2.5193837E-1,3.5207534E-1,1.9210564E-1,4.5682302E-1,2.2468017E-1,4.019318E-1,7.959445E-2,-5.2993704E-2,2.2973354E-1,1.9214511E-1,1.8937299E-1,3.4115973E-1,2.1746022E-1,8.3382614E-2,-6.4979956E-2,-3.478675E-1,5.8120586E-2,3.186996E-1,-9.322321E-2,-2.7562872E-1,2.7154684E-1,9.0051174E-2,3.5959244E-1,1.3237244E-1,5.6476545E-1,2.1393277E-1,-6.226671E-2,2.8931642E-2,-2.249477E-1,-3.7770894E-1,-1.8052459E-1],"split_indices":[22,24,7,0,0,21,21,28,0,0,0,23,17,20,24,28,0,0,10,0,0,0,0,0,0,14,21,0,0,0,0,0,0],"split_type":[0,0,0,0,0,0,0,0,0,0,0,0,0,0,0,0,0,0,0,0,0,0,0,0,0,0,0,0,0,0,0,0,0],"sum_hessian":[1.2607321E2,5.659577E1,6.947744E1,5.4154385E1,2.441387E0,1.2047298E1,5.7430145E1,5.255522E1,1.5991609E0,1.0210271E0,1.4203598E0,7.1848536E0,4.862445E0,4.549776E0,5.2880367E1,5.1530758E1,1.0244662E0,5.071491E0,2.1133626E0,3.6236846E0,1.2387605E0,1.960743E0,2.5890334E0,1.1865768E0,5.169379E1,2.49E0,4.9040756E1,1.0851834E0,1.0281793E0,1.0186592E0,1.4713407E0,4.5429413E1,3.6113424E0],"tree_param":{"num_deleted":"0","num_feature":"30","num_nodes":"33","size_leaf_vector":"1"}},{"base_weights":[1.0997445E-2,-7.6309484E-1,1.0266166E0,-1.0421637E0,3.8769516E-1,-1.293482E-1,1.0938337E0,-1.0896881E0,6.342061E-2,-4.7934654E-1,8.771887E-1,-2.282433E-1,1.8678647E-1,2.8269365E-1,3.3945936E-1,-3.5091573E-1,-6.3669497E-1,-2.884693E-1,5.047622E-2,5.1036615E-2,3.1365204E-1,-7.567998E-2,1.9816488E-1,-3.0809766E-1,1.3867873E-1,2.583735E-1,-2.160946E-1],"categories":[],"categories_nodes":[],"categories_segments":[],"categories_sizes":[],"default_left":[0,0,0,0,0,0,0,0,0,0,0,0,0,0,0,0,0,0,0,0,0,0,0,0,0,0,0],"id":4,"left_children":[1,3,5,7,9,11,13,15,-1,17,19,-1,-1,21,-1,-1,23,-1,-1,-1,-1,-1,-1,-1,25,-1,-1],"loss_changes":[8.198293E1,1.9411106E1,3.645687E0,3.0842552E0,5.6322575E0,2.075122E0,9.8659897E-1,9.3440247E-1,0E0,1.7474979E0,7.9830265E-1,0E0,0E0,8.196484E-1,0E0,0E0,2.911086E0,0E0,0E0,0E0,0E0,0E0,0E0,0E0,3.0685081E0,0E0,0E0],"parents":[2147483647,0,0,1,1,2,2,3,3,4,4,5,5,6,6,7,7,9,9,10,10,13,13,16,16,24,24],"right_children":[2,4,6,8,10,12,14,16,-1,18,20,-1,-1,22,-1,-1,24,-1,-1,-1,-1,-1,-1,-1,26,-1,-1],"split_conditions":[3.1625757E-1,4.6632302E-1,1.775448E-1,1.9319211E-1,3.6140725E-1,3.4022453E-1,1.6956869E-1,4.5922175E-1,6.342061E-2,1.3502753E-1,3.1822795E-1,-2.282433E-1,1.8678647E-1,3.6641765E-1,3.3945936E-1,-3.5091573E-1,3.1408936E-1,-2.884693E-1,5.047622E-2,5.1036615E-2,3.1365204E-1,-7.567998E-2,1.9816488E-1,-3.0809766E-1,8.3060406E-2,2.583735E-1,-2.160946E-1],"split_indices":[20,27,1,10,21,5,26,21,0,23,1,0,0,20,0,0,27,0,0,0,0,0,0,0,19,0,0],"split_type":[0,0,0,0,0,0,0,0,0,0,0,0,0,0,0,0,0,0,0,0,0,0,0,0,0,0,0],"sum_hessian":[1.0228324E2,5.818443E1,4.409881E1,4.6904408E1,1.1280023E1,2.3725507E0,4.1726257E1,4.531711E1,1.5872993E0,4.0777745E0,7.2022476E0,1.2832178E0,1.0893329E0,2.2305367E0,3.949572E1,3.7168316E1,8.148791E0,2.0594506E0,2.018324E0,1.7714592E0,5.4307885E0,1.0609045E0,1.1696322E0,5.204505E0,2.9442866E0,1.5977093E0,1.3465773E0],"tree_param":{"num_deleted":"0","num_feature":"30","num_nodes":"27","size_leaf_vector":"1"}},{"base_weights":[1.0223926E-2,-6.717744E-1,9.964414E-1,-8.5274655E-1,8.3985275E-1,1.7579002E-2,1.0522788E0,-1.0496376E0,-2.2974399E-1,6.588577E-2,2.7906084E-1,5.1918387E-2,3.2418564E-1,-1.0815482E0,-1.0583553E-2,-8.81265E-1,4.6221027E-1,-3.3640033E-1,-5.1309353E-1,-2.9525748E-1,-4.6493925E-2,-3.496448E-1,9.2699873E-1,5.060301E-2,-2.4576522E-1,4.489553E-2,-1.9978017E-1,3.5447064E-1,2.6099663E-2],"categories":[],"categories_nodes":[],"categories_segments":[],"categories_sizes":[],"default_left":[0,0,0,0,0,0,0,0,0,0,0,0,0,0,0,0,0,0,0,0,0,0,0,0,0,0,0,0,0],"id":5,"left_children":[1,3,5,7,9,-1,11,13,15,-1,-1,-1,-1,17,-1,19,21,-1,23,-1,-1,25,27,-1,-1,-1,-1,-1,-1],"loss_changes":[5.6574303E1,1.4321802E1,1.7388573E0,5.2681046E0,1.2193298E-1,0E0,6.200905E-1,1.0574532E0,5.846886E0,0E0,0E0,0E0,0E0,1.660614E-1,0E0,3.3774662E-1,2.7795959E0,0E0,9.704776E-1,0E0,0E0,5.8846533E-1,8.4067607E-1,0E0,0E0,0E0,0E0,0E0,0E0],"parents":[2147483647,0,0,1,1,2,2,3,3,4,4,6,6,7,7,8,8,13,13,15,15,16,16,18,18,21,21,22,22],"right_children":[2,4,6,8,10,-1,12,14,16,-1,-1,-1,-1,18,-1,20,22,-1,24,-1,-1,26,28,-1,-1,-1,-1,-1,-1],"split_conditions":[1.7280279E-1,5.522337E-1,1.5623003E-1,3.922895E-1,2.1923877E-2,1.7579002E-2,4.8379503E-2,1.9319211E-1,1.1381734E-1,6.588577E-2,2.7906084E-1,5.1918387E-2,3.2418564E-1,1.5387829E-1,-1.0583553E-2,3.3408934E-1,1.4138083E-1,-3.3640033E-1,1.5835136E-1,-2.9525748E-1,-4.6493925E-2,9.310943E-2,2.3251896E-1,5.060301E-2,-2.4576522E-1,4.489553E-2,-1.9978017E-1,3.5447064E-1,2.6099663E-2],"split_indices":[23,27,26,1,13,0,10,10,23,0,0,0,0,23,0,27,14,0,23,0,0,14,9,0,0,0,0,0,0],"split_type":[0,0,0,0,0,0,0,0,0,0,0,0,0,0,0,0,0,0,0,0,0,0,0,0,0,0,0,0,0],"sum_hessian":[8.21178E1,4.8734974E1,3.3382824E1,4.3913517E1,4.8214555E0,1.9910223E0,3.1391804E1,3.2847675E1,1.1065844E1,1.0492612E0,3.7721941E0,1.2021774E0,3.0189627E1,3.1781624E1,1.0660524E0,5.5585294E0,5.5073137E0,2.8793743E1,2.9878788E0,4.5575466E0,1.0009829E0,2.095244E0,3.41207E0,1.0650008E0,1.922878E0,1.0168644E0,1.0783796E0,2.306449E0,1.105621E0],"tree_param":{"num_deleted":"0","num_feature":"30","num_nodes":"29","size_leaf_vector":"1"}},{"base_weights":[1.0358256E-2,-7.380192E-1,7.8982514E-1,-8.98062E-1,3.988814E-1,-1.8032056E-1,9.009157E-1,-9.5266396E-1,4.3607946E-2,-1.06224895E-1,2.2076385E-1,-6.356821E-2,1.0013751E0,-1.0382223E0,-1.6395189E-1,-2.218158E-1,1.584772E-1,4.011826E-2,3.155025E-1,-5.72711E-2,-3.2173875E-1,-2.2896163E-1,2.2768489E-1],"categories":[],"categories_nodes":[],"categories_segments":[],"categories_sizes":[],"default_left":[0,0,0,0,0,0,0,0,0,0,0,0,0,0,0,0,0,0,0,0,0,0,0],"id":6,"left_children":[1,3,5,7,9,-1,11,13,-1,-1,-1,15,17,19,21,-1,-1,-1,-1,-1,-1,-1,-1],"loss_changes":[3.976733E1,6.687792E0,5.7001743E0,1.893343E0,1.5255315E0,0E0,3.0980072E0,1.8138866E0,0E0,0E0,0E0,1.9482697E0,1.0997906E0,5.5937576E-1,2.8273506E0,0E0,0E0,0E0,0E0,0E0,0E0,0E0,0E0],"parents":[2147483647,0,0,1,1,2,2,3,3,4,4,6,6,7,7,11,11,12,12,13,13,14,14],"right_children":[2,4,6,8,10,-1,12,14,-1,-1,-1,16,18,20,22,-1,-1,-1,-1,-1,-1,-1,-1],"split_conditions":[2.4542743E-1,2.3554613E-1,1.7963259E-1,6.482654E-2,2.911735E-1,-1.8032056E-1,1.2927644E-1,5.6476545E-1,4.3607946E-2,-1.06224895E-1,2.2076385E-1,5.0437844E-1,1.9039567E-1,5.360846E-2,3.1408936E-1,-2.218158E-1,1.584772E-1,4.011826E-2,3.155025E-1,-5.72711E-2,-3.2173875E-1,-2.2896163E-1,2.2768489E-1],"split_indices":[7,3,26,13,1,0,23,21,0,0,0,4,1,14,27,0,0,0,0,0,0,0,0],"split_type":[0,0,0,0,0,0,0,0,0,0,0,0,0,0,0,0,0,0,0,0,0,0,0],"sum_hessian":[6.617304E1,3.378691E1,3.238613E1,2.9801764E1,3.9851477E0,2.06914E0,3.0316992E1,2.8402452E1,1.399312E0,1.2164661E0,2.7686815E0,2.8945382E0,2.7422453E1,2.5337524E1,3.0649283E0,1.2349697E0,1.6595683E0,1.7031167E0,2.5719336E1,1.2395152E0,2.409801E1,1.9632186E0,1.1017097E0],"tree_param":{"num_deleted":"0","num_feature":"30","num_nodes":"23","size_leaf_vector":"1"}},{"base_weights":[7.7895424E-3,-5.7052237E-1,8.8710344E-1,-8.382874E-1,2.477967E-1,1.577241E-1,3.026046E-1,-9.0299255E-1,4.0363867E-2,-2.955647E-1,2.6084214E-1,-1.7827594E-1,2.227995E-1,-3.0370665E-1,-4.2465985E-1,-6.4728475E-1,1.22800395E-1,2.2067624E-1,-2.5560793E-1,-2.4728414E-1,-2.4369257E-2,2.1423055E-1,-1.0543496E-1],"categories":[],"categories_nodes":[],"categories_segments":[],"categories_sizes":[],"default_left":[0,0,0,0,0,0,0,0,0,0,0,0,0,0,0,0,0,0,0,0,0,0,0],"id":7,"left_children":[1,3,5,7,9,11,-1,13,-1,15,-1,-1,-1,-1,17,19,-1,21,-1,-1,-1,-1,-1],"loss_changes":[2.8127748E1,7.5209694E0,1.7866535E0,1.7188168E0,3.2972815E0,2.3416486E0,0E0,8.215332E-1,0E0,1.6407088E0,0E0,0E0,0E0,0E0,1.8908632E0,3.427465E-1,0E0,1.1696177E0,0E0,0E0,0E0,0E0,0E0],"parents":[2147483647,0,0,1,1,2,2,3,3,4,4,5,5,7,7,9,9,14,14,15,15,17,17],"right_children":[2,4,6,8,10,12,-1,14,-1,16,-1,-1,-1,-1,18,20,-1,22,-1,-1,-1,-1,-1],"split_conditions":[1.7280279E-1,4.5670104E-1,1.708763E-1,7.881613E-2,4.0698293E-1,3.3141696E-1,3.026046E-1,4.5922175E-1,4.0363867E-2,5.522337E-1,2.6084214E-1,-1.7827594E-1,2.227995E-1,-3.0370665E-1,4.321948E-1,1.527969E-1,1.22800395E-1,7.343708E-2,-2.5560793E-1,-2.4728414E-1,-2.4369257E-2,2.1423055E-1,-1.0543496E-1],"split_indices":[23,27,6,13,21,1,0,21,0,27,0,0,0,0,1,23,0,15,0,0,0,0,0],"split_type":[0,0,0,0,0,0,0,0,0,0,0,0,0,0,0,0,0,0,0,0,0,0,0],"sum_hessian":[5.3317944E1,3.237594E1,2.0942007E1,2.4375532E1,8.000406E0,3.3202574E0,1.762175E1,2.292269E1,1.4528432E0,4.5490184E0,3.4513876E0,1.4457444E0,1.874513E0,1.774839E1,5.1742997E0,3.0893006E0,1.4597179E0,2.2541316E0,2.920168E0,2.005901E0,1.0833994E0,1.0770681E0,1.1770633E0],"tree_param":{"num_deleted":"0","num_feature":"30","num_nodes":"23","size_leaf_vector":"1"}},{"base_weights":[8.431754E-3,-5.2257776E-1,8.358196E-1,-7.842959E-1,2.1723399E-1,1.1200919E-1,2.9325205E-1,4.287827E-2,-8.737823E-1,-2.576263E-1,2.4185689E-1,-1.6028978E-1,2.0402677E-1,-3.0371866E-1,-3.401503E-1,-5.4306954E-1,1.2730712E-1,-2.3078617E-1,2.3717846E-1,-2.0753352E-1,-2.057146E-2,2.005918E-1,-8.961652E-2],"categories":[],"categories_nodes":[],"categories_segments":[],"categories_sizes":[],"default_left":[0,0,0,0,0,0,0,0,0,0,0,0,0,0,0,0,0,0,0,0,0,0,0],"id":8,"left_children":[1,3,5,7,9,11,-1,-1,13,15,-1,-1,-1,-1,17,19,-1,-1,21,-1,-1,-1,-1],"loss_changes":[1.9791718E1,5.4848948E0,1.6960459E0,1.8252001E0,2.4326887E0,1.8362348E0,0E0,0E0,1.0483932E0,1.2353926E0,0E0,0E0,0E0,0E0,1.5174628E0,2.4030209E-1,0E0,0E0,9.07703E-1,0E0,0E0,0E0,0E0],"parents":[2147483647,0,0,1,1,2,2,3,3,4,4,5,5,8,8,9,9,14,14,15,15,18,18],"right_children":[2,4,6,8,10,12,-1,-1,14,16,-1,-1,-1,-1,18,20,-1,-1,22,-1,-1,-1,-1],"split_conditions":[1.6990267E-1,4.5670104E-1,1.708763E-1,8.3382614E-2,4.0698293E-1,3.3141696E-1,2.9325205E-1,4.287827E-2,4.5922175E-1,5.8969074E-1,2.4185689E-1,-1.6028978E-1,2.0402677E-1,-3.0371866E-1,1.6198084E-1,1.527969E-1,1.2730712E-1,-2.3078617E-1,1.726888E-1,-2.0753352E-1,-2.057146E-2,2.005918E-1,-8.961652E-2],"split_indices":[23,27,6,28,21,1,0,0,21,27,0,0,0,0,26,23,0,0,5,0,0,0,0],"split_type":[0,0,0,0,0,0,0,0,0,0,0,0,0,0,0,0,0,0,0,0,0,0,0],"sum_hessian":[4.3053486E1,2.6447887E1,1.6605598E1,1.9492153E1,6.9557343E0,3.0115585E0,1.359404E1,1.6630511E0,1.7829102E1,4.1623254E0,2.7934089E0,1.4365973E0,1.5749613E0,1.3440654E1,4.3884478E0,3.0778053E0,1.0845205E0,2.3265758E0,2.061872E0,1.994734E0,1.0830711E0,1.0050213E0,1.0568508E0],"tree_param":{"num_deleted":"0","num_feature":"30","num_nodes":"23","size_leaf_vector":"1"}},{"base_weights":[1.0188471E-2,-5.741191E-1,6.6041994E-1,-7.404293E-1,3.007288E-1,-6.957091E-2,8.964658E-1,-8.176409E-1,5.0720926E-2,-4.9957152E-2,1.9893888E-1,-2.276683E-1,4.8787165E-1,5.5734754E-2,2.8468543E-1,-9.237795E-1,-9.388766E-2,2.2576932E-2,1.8729928E-1,-4.3212164E-2,-2.9259866E-1,-1.715939E-1,1.3430505E-1],"categories":[],"categories_nodes":[],"categories_segments":[],"categories_sizes":[],"default_left":[0,0,0,0,0,0,0,0,0,0,0,0,0,0,0,0,0,0,0,0,0,0,0],"id":9,"left_children":[1,3,5,7,9,11,13,15,-1,-1,-1,-1,17,-1,-1,19,21,-1,-1,-1,-1,-1,-1],"loss_changes":[1.4098549E1,3.067697E0,3.0874362E0,1.3123369E0,7.59755E-1,2.3751698E0,3.2122326E-1,1.1102781E0,0E0,0E0,0E0,0E0,1.4971584E-1,0E0,0E0,4.0119457E-1,1.0602823E0,0E0,0E0,0E0,0E0,0E0,0E0],"parents":[2147483647,0,0,1,1,2,2,3,3,4,4,5,5,6,6,7,7,12,12,15,15,16,16],"right_children":[2,4,6,8,10,12,14,16,-1,-1,-1,-1,18,-1,-1,20,22,-1,-1,-1,-1,-1,-1],"split_conditions":[2.4542743E-1,2.3554613E-1,3.1263328E-1,6.482654E-2,3.3141696E-1,1.5348506E-1,1.217558E-1,5.6476545E-1,5.0720926E-2,-4.9957152E-2,1.9893888E-1,-2.276683E-1,3.4115973E-1,5.5734754E-2,2.8468543E-1,1.8559208E-2,4.4462788E-1,2.2576932E-2,1.8729928E-1,-4.3212164E-2,-2.9259866E-1,-1.715939E-1,1.3430505E-1],"split_indices":[7,3,21,13,1,23,23,21,0,0,0,0,20,0,0,19,24,0,0,0,0,0,0],"split_type":[0,0,0,0,0,0,0,0,0,0,0,0,0,0,0,0,0,0,0,0,0,0,0],"sum_hessian":[3.5109814E1,1.8553984E1,1.6555828E1,1.5719355E1,2.8346298E0,4.2176547E0,1.2338174E1,1.4582386E1,1.1369687E0,1.474289E0,1.3603407E0,1.7241796E0,2.4934752E0,1.1607453E0,1.1177429E1,1.2476353E1,2.1060333E0,1.0052799E0,1.4881952E0,1.0089611E0,1.1467392E1,1.0887501E0,1.0172831E0],"tree_param":{"num_deleted":"0","num_feature":"30","num_nodes":"23","size_leaf_vector":"1"}},{"base_weights":[1.2686981E-2,-6.0121614E-1,5.4330206E-1,-7.698712E-1,2.627931E-1,-2.752987E-1,7.278754E-1,1.6776458E-3,-8.513014E-1,-4.623569E-2,1.7029175E-1,-2.0867683E-1,1.09813064E-1,-6.278392E-2,8.784894E-1,-2.8605393E-1,-4.5368757E-2,8.171165E-2,2.7838558E-1],"categories":[],"categories_nodes":[],"categories_segments":[],"categories_sizes":[],"default_left":[0,0,0,0,0,0,0,0,0,0,0,0,0,0,0,0,0,0,0],"id":10,"left_children":[1,3,5,7,9,11,13,-1,15,-1,-1,-1,-1,-1,17,-1,-1,-1,-1],"loss_changes":[1.0100899E1,2.2986073E0,2.711523E0,7.8087616E-1,4.8084128E-1,1.2744503E0,2.1368513E0,0E0,6.521654E-1,0E0,0E0,0E0,0E0,0E0,1.1040211E-1,0E0,0E0,0E0,0E0],"parents":[2147483647,0,0,1,1,2,2,3,3,4,4,5,5,6,6,8,8,14,14],"right_children":[2,4,6,8,10,12,14,-1,16,-1,-1,-1,-1,-1,18,-1,-1,-1,-1],"split_conditions":[3.821306E-1,2.3554613E-1,1.328893E-1,8.3382614E-2,3.5847142E-1,5.0437844E-1,2.1002132E-1,1.6776458E-3,5.6476545E-1,-4.623569E-2,1.7029175E-1,-2.0867683E-1,1.09813064E-1,-6.278392E-2,2.1242544E-1,-2.8605393E-1,-4.5368757E-2,8.171165E-2,2.7838558E-1],"split_indices":[27,3,23,28,1,4,21,0,21,0,0,0,0,0,7,0,0,0,0],"split_type":[0,0,0,0,0,0,0,0,0,0,0,0,0,0,0,0,0,0,0],"sum_hessian":[2.900574E1,1.338579E1,1.5619948E1,1.129078E1,2.0950105E0,2.7834666E0,1.2836482E1,1.1614615E0,1.0129318E1,1.0936944E0,1.0013161E0,1.6304199E0,1.1530467E0,1.7234237E0,1.1113058E1,8.522935E0,1.6063837E0,1.3293809E0,9.783677E0],"tree_param":{"num_deleted":"0","num_feature":"30","num_nodes":"19","size_leaf_vector":"1"}},{"base_weights":[1.0925682E-2,-3.74308E-1,7.5144E-1,-5.2446306E-1,1.6096225E-1,-1.165196E-2,2.6044998E-1,-7.482905E-1,-3.2079052E-2,-2.64304E-1,9.302408E-3,-1.7858645E-1,4.3598443E-1,-1.9028345E-2,2.1072665E-1],"categories":[],"categories_nodes":[],"categories_segments":[],"categories_sizes":[],"default_left":[0,0,0,0,0,0,0,0,0,0,0,0,0,0,0],"id":11,"left_children":[1,3,5,7,-1,-1,-1,9,11,-1,-1,-1,13,-1,-1],"loss_changes":[7.512311E0,2.653145E0,8.645506E-1,1.6724272E0,0E0,0E0,0E0,1.1172252E0,1.8030969E0,0E0,0E0,0E0,5.468623E-1,0E0,0E0],"parents":[2147483647,0,0,1,1,2,2,3,3,7,7,8,8,12,12],"right_children":[2,4,6,8,-1,-1,-1,10,12,-1,-1,-1,14,-1,-1],"split_conditions":[1.8275659E-1,5.522337E-1,2.6401615E-2,3.922895E-1,1.6096225E-1,-1.165196E-2,2.6044998E-1,5.2723393E-2,1.1381734E-1,-2.64304E-1,9.302408E-3,-1.7858645E-1,3.35831E-1,-1.9028345E-2,2.1072665E-1],"split_indices":[23,27,19,1,0,0,0,13,23,0,0,0,4,0,0],"split_type":[0,0,0,0,0,0,0,0,0,0,0,0,0,0,0],"sum_hessian":[2.434797E1,1.6341335E1,8.006634E0,1.4392853E1,1.9484835E0,1.1162801E0,6.8903537E0,9.537552E0,4.8553014E0,8.038063E0,1.4994887E0,2.080308E0,2.7749934E0,1.2304927E0,1.5445006E0],"tree_param":{"num_deleted":"0","num_feature":"30","num_nodes":"15","size_leaf_vector":"1"}},{"base_weights":[1.6130164E-2,-6.143069E-1,3.9614722E-1,-8.098968E-1,1.1199857E-1,1.940071E-2,2.596154E-1,-2.6307127E-1,-5.8968846E-2,-5.0228E-1,4.15782E-1,-2.1025603E-1,-2.6069315E-2,-6.687429E-2,6.28457E-1,3.3740014E-2,2.2383831E-1],"categories":[],"categories_nodes":[],"categories_segments":[],"categories_sizes":[],"default_left":[0,0,0,0,0,0,0,0,0,0,0,0,0,0,0,0,0],"id":12,"left_children":[1,3,5,7,-1,9,-1,-1,-1,11,13,-1,-1,-1,15,-1,-1],"loss_changes":[5.4401703E0,1.9539659E0,2.4832273E0,1.3390064E-1,0E0,2.04236E0,0E0,0E0,0E0,2.9222906E-1,8.9881104E-1,0E0,0E0,0E0,1.8640518E-1,0E0,0E0],"parents":[2147483647,0,0,1,1,2,2,3,3,5,5,9,9,10,10,14,14],"right_children":[2,4,6,8,-1,10,-1,-1,-1,12,14,-1,-1,-1,16,-1,-1],"split_conditions":[1.6605431E-1,1.578005E-1,1.9214511E-1,5.9895627E-2,1.1199857E-1,3.6140725E-1,2.596154E-1,-2.6307127E-1,-5.8968846E-2,4.393449E-1,2.4482554E-1,-2.1025603E-1,-2.6069315E-2,-6.687429E-2,4.2217526E-1,3.3740014E-2,2.2383831E-1],"split_indices":[26,12,23,13,0,21,0,0,0,24,28,0,0,0,24,0,0],"split_type":[0,0,0,0,0,0,0,0,0,0,0,0,0,0,0,0,0],"sum_hessian":[2.0691637E1,7.5499573E0,1.314168E1,6.452147E0,1.0978099E0,7.8668227E0,5.2748575E0,5.429261E0,1.022886E0,3.2812192E0,4.585603E0,1.7549949E0,1.5262243E0,1.1334702E0,3.4521334E0,1.0042471E0,2.4478862E0],"tree_param":{"num_deleted":"0","num_feature":"30","num_nodes":"17","size_leaf_vector":"1"}},{"base_weights":[1.3494813E-2,-3.9339596E-1,5.1531434E-1,1.4937688E-1,-7.301607E-1,-6.1574094E-2,7.565003E-1,-1.638334E-1,1.8332557E-1,-2.54207E-1,-2.0628052E-2,-1.6928346E-1,1.1192146E-1,6.903263E-2,2.4616869E-1],"categories":[],"categories_nodes":[],"categories_segments":[],"categories_sizes":[],"default_left":[0,0,0,0,0,0,0,0,0,0,0,0,0,0,0],"id":13,"left_children":[1,3,5,7,9,11,13,-1,-1,-1,-1,-1,-1,-1,-1],"loss_changes":[4.0143948E0,2.0970545E0,1.2698333E0,1.9375023E0,4.751463E-1,9.789112E-1,2.2783995E-2,0E0,0E0,0E0,0E0,0E0,0E0,0E0,0E0],"parents":[2147483647,0,0,1,1,2,2,3,3,4,4,5,5,6,6],"right_children":[2,4,6,8,10,12,14,-1,-1,-1,-1,-1,-1,-1,-1],"split_conditions":[2.4542743E-1,7.343708E-2,3.1263328E-1,3.1439394E-2,1.7280279E-1,1.5348506E-1,2.7897614E-1,-1.638334E-1,1.8332557E-1,-2.54207E-1,-2.0628052E-2,-1.6928346E-1,1.1192146E-1,6.903263E-2,2.4616869E-1],"split_indices":[7,15,21,16,23,23,7,0,0,0,0,0,0,0,0],"split_type":[0,0,0,0,0,0,0,0,0,0,0,0,0,0,0],"sum_hessian":[1.766767E1,9.87598E0,7.791689E0,3.9944513E0,5.881529E0,2.5167122E0,5.2749767E0,1.5208035E0,2.4736478E0,4.757395E0,1.1241343E0,1.0286932E0,1.4880189E0,1.0705264E0,4.2044506E0],"tree_param":{"num_deleted":"0","num_feature":"30","num_nodes":"15","size_leaf_vector":"1"}},{"base_weights":[9.619848E-3,-5.21682E-1,3.3706018E-1,-2.4440399E-1,4.810518E-2,-1.1002754E-1,5.267701E-1,-5.7782006E-2,6.52857E-1,1.3991303E-2,2.3465239E-1],"categories":[],"categories_nodes":[],"categories_segments":[],"categories_sizes":[],"default_left":[0,0,0,0,0,0,0,0,0,0,0],"id":14,"left_children":[1,3,5,-1,-1,-1,7,-1,9,-1,-1],"loss_changes":[3.0122094E0,1.4513758E0,1.6211599E0,0E0,0E0,0E0,9.2706513E-1,0E0,5.706701E-1,0E0,0E0],"parents":[2147483647,0,0,1,1,2,2,6,6,8,8],"right_children":[2,4,6,-1,-1,-1,8,-1,10,-1,-1],"split_conditions":[1.6605431E-1,6.295877E-2,1.1381734E-1,-2.4440399E-1,4.810518E-2,-1.1002754E-1,2.1002132E-1,-5.7782006E-2,3.000066E-1,1.3991303E-2,2.3465239E-1],"split_indices":[26,13,23,0,0,0,21,0,24,0,0],"split_type":[0,0,0,0,0,0,0,0,0,0,0],"sum_hessian":[1.5303824E1,5.6091895E0,9.694635E0,3.787577E0,1.8216126E0,1.8601755E0,7.83446E0,1.0897015E0,6.744758E0,1.425042E0,5.319716E0],"tree_param":{"num_deleted":"0","num_feature":"30","num_nodes":"11","size_leaf_vector":"1"}},{"base_weights":[-1.088475E-4,-2.2841549E-1,2.0296814E-1,-4.4834197E-1,2.218175E-1,6.159603E-2,-5.6902134E-1,1.5404743E-1,-7.728059E-2,-2.4191926E-1,2.1825679E-2],"categories":[],"categories_nodes":[],"categories_segments":[],"categories_sizes":[],"default_left":[0,0,0,0,0,0,0,0,0,0,0],"id":15,"left_children":[1,3,-1,5,7,-1,9,-1,-1,-1,-1],"loss_changes":[2.3956535E0,1.2475243E0,0E0,7.57411E-1,7.578952E-1,0E0,1.1433644E0,0E0,0E0,0E0,0E0],"parents":[2147483647,0,0,1,1,3,3,4,4,6,6],"right_children":[2,4,-1,6,8,-1,10,-1,-1,-1,-1],"split_conditions":[3.4857315E-1,4.5922175E-1,2.0296814E-1,5.3467996E-2,4.808928E-1,6.159603E-2,2.8738442E-1,1.5404743E-1,-7.728059E-2,-2.4191926E-1,2.1825679E-2],"split_indices":[22,21,0,25,1,0,25,0,0,0,0],"split_type":[0,0,0,0,0,0,0,0,0,0,0],"sum_hessian":[1.3506729E1,1.0594583E1,2.912146E0,7.120576E0,3.4740067E0,1.000419E0,6.1201572E0,2.1157417E0,1.3582648E0,4.2804213E0,1.8397359E0],"tree_param":{"num_deleted":"0","num_feature":"30","num_nodes":"11","size_leaf_vector":"1"}},{"base_weights":[6.6902074E-3,-3.0873698E-1,4.297044E-1,-2.1447867E-1,-1.7671712E-2,-1.00627795E-1,6.5127116E-1,1.1516974E-1,-3.193671E-1,4.973014E-2,2.2082199E-1,-1.8625246E-1,7.733021E-2],"categories":[],"categories_nodes":[],"categories_segments":[],"categories_sizes":[],"default_left":[0,0,0,0,0,0,0,0,0,0,0,0,0],"id":16,"left_children":[1,3,5,-1,7,-1,9,-1,11,-1,-1,-1,-1],"loss_changes":[1.8819404E0,9.440649E-1,1.2386833E0,0E0,8.1794137E-1,0E0,8.4115505E-2,0E0,8.2522005E-1,0E0,0E0,0E0,0E0],"parents":[2147483647,0,0,1,1,2,2,4,4,6,6,8,8],"right_children":[2,4,6,-1,8,-1,10,-1,12,-1,-1,-1,-1],"split_conditions":[4.89505E-2,1.6653354E-1,2.2208281E-1,-2.1447867E-1,6.570707E-2,-1.00627795E-1,2.977079E-1,1.1516974E-1,5.347079E-1,4.973014E-2,2.2082199E-1,-1.8625246E-1,7.733021E-2],"split_indices":[13,26,24,0,16,0,21,0,27,0,0,0,0],"split_type":[0,0,0,0,0,0,0,0,0,0,0,0,0],"sum_hessian":[1.2110039E1,7.0919585E0,5.0180807E0,2.3525884E0,4.73937E0,1.0114359E0,4.0066447E0,1.916262E0,2.823108E0,1.0351298E0,2.971515E0,1.8046777E0,1.0184302E0],"tree_param":{"num_deleted":"0","num_feature":"30","num_nodes":"13","size_leaf_vector":"1"}},{"base_weights":[8.530943E-4,-2.1622086E-1,5.329906E-1,-4.1642198E-1,1.6520712E-1,3.9126717E-2,1.9053316E-1,-5.269809E-1,2.092471E-2,-2.9297419E-2,1.3471188E-1,-2.1316443E-1,-1.6586606E-1,3.2157652E-2,-1.0694867E-1],"categories":[],"categories_nodes":[],"categories_segments":[],"categories_sizes":[],"default_left":[0,0,0,0,0,0,0,0,0,0,0,0,0,0,0],"id":17,"left_children":[1,3,5,7,9,-1,-1,11,-1,-1,-1,-1,13,-1,-1],"loss_changes":[1.4782306E0,7.630887E-1,6.9576144E-2,3.7251258E-1,3.3076558E-1,0E0,0E0,2.27252E-1,0E0,0E0,0E0,0E0,1.9744723E-1,0E0,0E0],"parents":[2147483647,0,0,1,1,2,2,3,3,4,4,7,7,12,12],"right_children":[2,4,6,8,10,-1,-1,12,-1,-1,-1,-1,14,-1,-1],"split_conditions":[5.1890033E-1,3.973622E-1,1.5579532E-1,1.4756472E-1,4.89505E-2,3.9126717E-2,1.9053316E-1,1.7963259E-1,2.092471E-2,-2.9297419E-2,1.3471188E-1,-2.1316443E-1,7.126263E-2,3.2157652E-2,-1.0694867E-1],"split_indices":[27,1,23,10,13,0,0,26,0,0,0,0,16,0,0],"split_type":[0,0,0,0,0,0,0,0,0,0,0,0,0,0,0],"sum_hessian":[1.0799406E1,8.092089E0,2.7073174E0,5.2465653E0,2.8455236E0,1.0085702E0,1.6987473E0,4.206121E0,1.0404444E0,1.817872E0,1.0276514E0,2.1470492E0,2.0590718E0,1.0264605E0,1.0326111E0],"tree_param":{"num_deleted":"0","num_feature":"30","num_nodes":"15","size_leaf_vector":"1"}},{"base_weights":[6.0164905E-3,-4.1434294E-1,2.4364191E-1,-1.9914654E-1,7.0636007E-3,-1.3346298E-1,5.2187675E-1,-9.926255E-2,5.9856262E-2,4.572373E-2,1.9712844E-1],"categories":[],"categories_nodes":[],"categories_segments":[],"categories_sizes":[],"default_left":[0,0,0,0,0,0,0,0,0,0,0],"id":18,"left_children":[1,3,5,-1,-1,7,9,-1,-1,-1,-1],"loss_changes":[1.1946224E0,4.8804468E-1,8.696481E-1,0E0,0E0,3.3115706E-1,1.2921321E-1,0E0,0E0,0E0,0E0],"parents":[2147483647,0,0,1,1,2,2,5,5,6,6],"right_children":[2,4,6,-1,-1,8,10,-1,-1,-1,-1],"split_conditions":[1.15119934E-1,1.7445327E-1,2.3930614E-1,-1.9914654E-1,7.0636007E-3,3.4020966E-1,4.1557154E-1,-9.926255E-2,5.9856262E-2,4.572373E-2,1.9712844E-1],"split_indices":[23,7,28,0,0,1,24,0,0,0,0],"split_type":[0,0,0,0,0,0,0,0,0,0,0],"sum_hessian":[9.948965E0,3.3244069E0,6.624558E0,1.7891245E0,1.5352825E0,3.0334718E0,3.5910861E0,1.9083962E0,1.1250755E0,1.5320727E0,2.0590134E0],"tree_param":{"num_deleted":"0","num_feature":"30","num_nodes":"11","size_leaf_vector":"1"}},{"base_weights":[5.4077427E-3,-2.1018486E-1,4.2637268E-1,-1.61185E-1,4.2845428E-2,-8.843271E-3,1.8540749E-1,-1.218775E-1,3.5451847E-1,2.2203503E-2,1.4038213E-1],"categories":[],"categories_nodes":[],"categories_segments":[],"categories_sizes":[],"default_left":[0,0,0,0,0,0,0,0,0,0,0],"id":19,"left_children":[1,3,5,-1,7,-1,-1,-1,9,-1,-1],"loss_changes":[1.0189546E0,6.389283E-1,3.500533E-1,0E0,8.6096865E-1,0E0,0E0,0E0,7.855508E-2,0E0,0E0],"parents":[2147483647,0,0,1,1,2,2,4,4,8,8],"right_children":[2,4,6,-1,8,-1,-1,-1,10,-1,-1],"split_conditions":[1.6990267E-1,3.4233096E-1,1.388941E-1,-1.61185E-1,3.0090618E-1,-8.843271E-3,1.8540749E-1,-1.218775E-1,3.0702394E-2,2.2203503E-2,1.4038213E-1],"split_indices":[23,4,6,0,21,0,0,0,13,0,0],"split_type":[0,0,0,0,0,0,0,0,0,0,0],"sum_hessian":[9.239853E0,6.4415765E0,2.7982762E0,2.31959E0,4.1219864E0,1.078715E0,1.7195612E0,1.5643574E0,2.557629E0,1.2122111E0,1.345418E0],"tree_param":{"num_deleted":"0","num_feature":"30","num_nodes":"11","size_leaf_vector":"1"}},{"base_weights":[1.069723E-2,-3.706327E-1,2.17949E-1,-1.8105662E-1,7.1943947E-3,1.9236822E-5,1.6995972E-1,3.7657797E-1,-1.5248063E-1,3.3746228E-2,1.5284699E-1],"categories":[],"categories_nodes":[],"categories_segments":[],"categories_sizes":[],"default_left":[0,0,0,0,0,0,0,0,0,0,0],"id":20,"left_children":[1,3,5,-1,-1,7,-1,9,-1,-1,-1],"loss_changes":[8.3419704E-1,3.5700065E-1,5.1702154E-1,0E0,0E0,1.1843657E0,0E0,6.745547E-2,0E0,0E0,0E0],"parents":[2147483647,0,0,1,1,2,2,5,5,7,7],"right_children":[2,4,6,-1,-1,8,-1,10,-1,-1,-1],"split_conditions":[3.0090618E-1,1.5348506E-1,2.7813122E-1,-1.8105662E-1,7.1943947E-3,1.148947E-1,1.6995972E-1,4.302967E-2,-1.5248063E-1,3.3746228E-2,1.5284699E-1],"split_indices":[21,23,7,0,0,15,0,13,0,0,0],"split_type":[0,0,0,0,0,0,0,0,0,0,0],"sum_hessian":[8.533158E0,2.7271173E0,5.8060412E0,1.3820653E0,1.345052E0,4.1878853E0,1.618156E0,2.5545237E0,1.6333617E0,1.4733565E0,1.0811672E0],"tree_param":{"num_deleted":"0","num_feature":"30","num_nodes":"11","size_leaf_vector":"1"}},{"base_weights":[1.10176075E-2,-3.506094E-1,2.0706952E-1,-1.6874103E-1,3.9126854E-3,-8.42763E-2,3.62645E-1,-3.741877E-2,1.56474E-1],"categories":[],"categories_nodes":[],"categories_segments":[],"categories_sizes":[],"default_left":[0,0,0,0,0,0,0,0,0],"id":21,"left_children":[1,3,5,-1,-1,-1,7,-1,-1],"loss_changes":[6.9951975E-1,2.7544093E-1,5.849249E-1,0E0,0E0,0E0,4.7258323E-1,0E0,0E0],"parents":[2147483647,0,0,1,1,2,2,6,6],"right_children":[2,4,6,-1,-1,-1,8,-1,-1],"split_conditions":[1.15119934E-1,1.7445327E-1,2.3134328E-1,-1.6874103E-1,3.9126854E-3,-8.42763E-2,1.9120836E-1,-3.741877E-2,1.56474E-1],"split_indices":[23,7,21,0,0,0,28,0,0],"split_type":[0,0,0,0,0,0,0,0,0],"sum_hessian":[7.842593E0,2.479918E0,5.362675E0,1.221534E0,1.2583839E0,1.1016045E0,4.2610707E0,1.1007719E0,3.1602988E0],"tree_param":{"num_deleted":"0","num_feature":"30","num_nodes":"9","size_leaf_vector":"1"}},{"base_weights":[-6.989826E-3,-2.328218E-1,3.0769706E-1,-4.3833643E-1,2.4718374E-2,-7.2629643E-3,1.5535484E-1,-1.9515365E-2,-1.7111702E-1],"categories":[],"categories_nodes":[],"categories_segments":[],"categories_sizes":[],"default_left":[0,0,0,0,0,0,0,0,0],"id":22,"left_children":[1,3,5,7,-1,-1,-1,-1,-1],"loss_changes":[6.658005E-1,3.8832045E-1,2.8623113E-1,1.3292426E-1,0E0,0E0,0E0,0E0,0E0],"parents":[2147483647,0,0,1,1,2,2,3,3],"right_children":[2,4,6,8,-1,-1,-1,-1,-1],"split_conditions":[4.89505E-2,4.393449E-1,3.821306E-1,4.4949494E-2,2.4718374E-2,-7.2629643E-3,1.5535484E-1,-1.9515365E-2,-1.7111702E-1],"split_indices":[13,24,27,16,0,0,0,0,0],"split_type":[0,0,0,0,0,0,0,0,0],"sum_hessian":[7.360663E0,4.436791E0,2.923872E0,2.449305E0,1.9874858E0,1.4765934E0,1.4472786E0,1.0300896E0,1.4192153E0],"tree_param":{"num_deleted":"0","num_feature":"30","num_nodes":"9","size_leaf_vector":"1"}},{"base_weights":[-7.723616E-3,-1.24003075E-1,1.494063E-1,-1.03126355E-1,3.1452194E-1,-2.9501038E-2,4.3491146E-1,5.1970627E-2,1.7362069E-1],"categories":[],"categories_nodes":[],"categories_segments":[],"categories_sizes":[],"default_left":[0,0,0,0,0,0,0,0,0],"id":23,"left_children":[1,-1,3,-1,5,-1,7,-1,-1],"loss_changes":[5.707292E-1,0E0,6.3663065E-1,0E0,3.1040776E-1,0E0,6.358498E-2,0E0,0E0],"parents":[2147483647,0,0,2,2,4,4,6,6],"right_children":[2,-1,4,-1,6,-1,8,-1,-1],"split_conditions":[2.3567514E-2,-1.24003075E-1,2.4387506E-1,-1.03126355E-1,2.5932837E-1,-2.9501038E-2,5.1957607E-2,5.1970627E-2,1.7362069E-1],"split_indices":[13,0,24,0,21,0,13,0,0],"split_type":[0,0,0,0,0,0,0,0,0],"sum_hessian":[6.985766E0,1.4952631E0,5.490503E0,1.1058106E0,4.384692E0,1.0312712E0,3.3534207E0,1.9712999E0,1.3821208E0],"tree_param":{"num_deleted":"0","num_feature":"30","num_nodes":"9","size_leaf_vector":"1"}},{"base_weights":[-8.788498E-3,-3.086988E-1,1.729917E-1,-1.6517177E-1,2.9844517E-2,-4.4470206E-2,3.8574776E-1,1.4997898E-1,3.704026E-2],"categories":[],"categories_nodes":[],"categories_segments":[],"categories_sizes":[],"default_left":[0,0,0,0,0,0,0,0,0],"id":24,"left_children":[1,3,5,-1,-1,-1,7,-1,-1],"loss_changes":[4.690406E-1,3.7428015E-1,4.2538863E-1,0E0,0E0,0E0,4.365021E-2,0E0,0E0],"parents":[2147483647,0,0,1,1,2,2,6,6],"right_children":[2,4,6,-1,-1,-1,8,-1,-1],"split_conditions":[1.6605431E-1,6.295877E-2,3.6140725E-1,-1.6517177E-1,2.9844517E-2,-4.4470206E-2,1.300658E-1,1.4997898E-1,3.704026E-2],"split_indices":[26,13,21,0,0,0,15,0,0],"split_type":[0,0,0,0,0,0,0,0,0],"sum_hessian":[6.623907E0,2.2362418E0,4.3876653E0,1.1851292E0,1.0511128E0,1.8690233E0,2.5186417E0,1.1234596E0,1.3951823E0],"tree_param":{"num_deleted":"0","num_feature":"30","num_nodes":"9","size_leaf_vector":"1"}},{"base_weights":[-6.2662954E-3,-2.0775804E-1,2.6363713E-1,8.567144E-2,-1.5188572E-1,-1.2980393E-2,1.3228409E-1],"categories":[],"categories_nodes":[],"categories_segments":[],"categories_sizes":[],"default_left":[0,0,0,0,0,0,0],"id":25,"left_children":[1,3,5,-1,-1,-1,-1],"loss_changes":[4.5197007E-1,8.42811E-1,2.1294516E-1,0E0,0E0,0E0,0E0],"parents":[2147483647,0,0,1,1,2,2],"right_children":[2,4,6,-1,-1,-1,-1],"split_conditions":[2.4542743E-1,1.2640329E-1,1.527969E-1,8.567144E-2,-1.5188572E-1,-1.2980393E-2,1.3228409E-1],"split_indices":[7,5,23,0,0,0,0],"split_type":[0,0,0,0,0,0,0],"sum_hessian":[6.3036623E0,3.7410765E0,2.5625858E0,1.4267359E0,2.3143406E0,1.2151908E0,1.3473951E0],"tree_param":{"num_deleted":"0","num_feature":"30","num_nodes":"7","size_leaf_vector":"1"}},{"base_weights":[2.1728359E-3,-1.430151E-1,1.0615934E-1,-1.281964E-1,6.400836E-2,-7.705615E-2,8.6529516E-2],"categories":[],"categories_nodes":[],"categories_segments":[],"categories_sizes":[],"default_left":[0,0,0,0,0,0,0],"id":26,"left_children":[1,3,-1,-1,5,-1,-1],"loss_changes":[4.0586817E-1,3.591177E-1,0E0,0E0,3.715815E-1,0E0,0E0],"parents":[2147483647,0,0,1,1,4,4],"right_children":[2,4,-1,-1,6,-1,-1],"split_conditions":[1.9214511E-1,3.0090618E-1,1.0615934E-1,-1.281964E-1,3.409768E-1,-7.705615E-2,8.6529516E-2],"split_indices":[23,21,0,0,4,0,0],"split_type":[0,0,0,0,0,0,0],"sum_hessian":[5.957513E0,4.636705E0,1.3208082E0,1.5053207E0,3.1313841E0,1.2293105E0,1.9020736E0],"tree_param":{"num_deleted":"0","num_feature":"30","num_nodes":"7","size_leaf_vector":"1"}},{"base_weights":[-6.6713226E-4,-2.3041075E-1,2.0231776E-1,1.935637E-2,-1.3239111E-1,-3.0864364E-2,1.073803E-1],"categories":[],"categories_nodes":[],"categories_segments":[],"categories_sizes":[],"default_left":[0,0,0,0,0,0,0],"id":27,"left_children":[1,3,5,-1,-1,-1,-1],"loss_changes":[3.577041E-1,2.5218314E-1,2.3031989E-1,0E0,0E0,0E0,0E0],"parents":[2147483647,0,0,1,1,2,2],"right_children":[2,4,6,-1,-1,-1,-1],"split_conditions":[1.3618265E-1,1.343502E-1,2.140745E-1,1.935637E-2,-1.3239111E-1,-3.0864364E-2,1.073803E-1],"split_indices":[23,18,28,0,0,0,0],"split_type":[0,0,0,0,0,0,0],"sum_hessian":[5.6707697E0,2.5966735E0,3.074096E0,1.3719999E0,1.2246736E0,1.1525557E0,1.9215403E0],"tree_param":{"num_deleted":"0","num_feature":"30","num_nodes":"7","size_leaf_vector":"1"}},{"base_weights":[-6.504759E-3,-9.795726E-2,1.2394944E-1,-7.282783E-2,2.667708E-1,8.1532774E-4,3.506685E-1,3.5901796E-2,1.2965901E-1],"categories":[],"categories_nodes":[],"categories_segments":[],"categories_sizes":[],"default_left":[0,0,0,0,0,0,0,0,0],"id":28,"left_children":[1,-1,3,-1,5,-1,7,-1,-1],"loss_changes":[3.1027693E-1,0E0,3.4318048E-1,0E0,9.435907E-2,0E0,9.619057E-3,0E0,0E0],"parents":[2147483647,0,0,2,2,4,4,6,6],"right_children":[2,-1,4,-1,6,-1,8,-1,-1],"split_conditions":[2.3567514E-2,-9.795726E-2,2.5113913E-1,-7.282783E-2,2.9850745E-1,8.1532774E-4,4.629827E-2,3.5901796E-2,1.2965901E-1],"split_indices":[13,0,24,0,21,0,13,0,0],"split_type":[0,0,0,0,0,0,0,0,0],"sum_hessian":[5.46271E0,1.1467118E0,4.315998E0,1.0136368E0,3.3023612E0,1.0451937E0,2.2571673E0,1.2326211E0,1.0245464E0],"tree_param":{"num_deleted":"0","num_feature":"30","num_nodes":"9","size_leaf_vector":"1"}},{"base_weights":[-5.01917E-3,-1.7781998E-1,2.4205692E-1,7.4369036E-2,-4.2864224E-1,1.5195347E-2,9.366304E-2,-1.5550372E-1,-3.8390145E-2],"categories":[],"categories_nodes":[],"categories_segments":[],"categories_sizes":[],"default_left":[0,0,0,0,0,0,0,0,0],"id":29,"left_children":[1,3,5,-1,7,-1,-1,-1,-1],"loss_changes":[3.112166E-1,5.624882E-1,2.4583876E-2,0E0,1.6067207E-2,0E0,0E0,0E0,0E0],"parents":[2147483647,0,0,1,1,2,2,4,4],"right_children":[2,4,6,-1,8,-1,-1,-1,-1],"split_conditions":[4.6632302E-1,1.2640329E-1,5.2577317E-1,7.4369036E-2,2.888092E-1,1.5195347E-2,9.366304E-2,-1.5550372E-1,-3.8390145E-2],"split_indices":[27,5,27,0,22,0,0,0,0],"split_type":[0,0,0,0,0,0,0,0,0],"sum_hessian":[5.2811656E0,3.27264E0,2.0085258E0,1.2176332E0,2.0550067E0,1.0005732E0,1.0079528E0,1.0252064E0,1.0298002E0],"tree_param":{"num_deleted":"0","num_feature":"30","num_nodes":"9","size_leaf_vector":"1"}},{"base_weights":[-6.716766E-3,-8.0110736E-2,1.5232904E-1,-3.6634617E-2,3.0245888E-1,2.240501E-2,1.1271924E-1],"categories":[],"categories_nodes":[],"categories_segments":[],"categories_sizes":[],"default_left":[0,0,0,0,0,0,0],"id":30,"left_children":[1,-1,3,-1,5,-1,-1],"loss_changes":[2.9142922E-1,0E0,2.1807097E-1,0E0,2.4166733E-2,0E0,0E0],"parents":[2147483647,0,0,2,2,4,4],"right_children":[2,-1,4,-1,6,-1,-1],"split_conditions":[1.6605431E-1,-8.0110736E-2,1.3502753E-1,-3.6634617E-2,4.6116838E-1,2.240501E-2,1.1271924E-1],"split_indices":[26,0,23,0,27,0,0],"split_type":[0,0,0,0,0,0,0],"sum_hessian":[5.0564213E0,1.6601598E0,3.3962615E0,1.2669036E0,2.1293578E0,1.0097325E0,1.1196254E0],"tree_param":{"num_deleted":"0","num_feature":"30","num_nodes":"7","size_leaf_vector":"1"}},{"base_weights":[-1.3168704E-3,-7.647925E-2,1.4953671E-1,9.821727E-2,-2.866862E-2],"categories":[],"categories_nodes":[],"categories_segments":[],"categories_sizes":[],"default_left":[0,0,0,0,0],"id":31,"left_children":[1,-1,3,-1,-1],"loss_changes":[2.6431113E-1,0E0,2.2036049E-1,0E0,0E0],"parents":[2147483647,0,0,2,2],"right_children":[2,-1,4,-1,-1],"split_conditions":[3.0090618E-1,-7.647925E-2,1.16547E-1,9.821727E-2,-2.866862E-2],"split_indices":[21,0,15,0,0],"split_type":[0,0,0,0,0],"sum_hessian":[4.9121284E0,1.5747492E0,3.3373792E0,1.7394264E0,1.5979528E0],"tree_param":{"num_deleted":"0","num_feature":"30","num_nodes":"5","size_leaf_vector":"1"}},{"base_weights":[-1.9023045E-3,-1.7441954E-1,6.6378295E-2,6.258035E-2,-1.3080736E-1],"categories":[],"categories_nodes":[],"categories_segments":[],"categories_sizes":[],"default_left":[0,0,0,0,0],"id":32,"left_children":[1,3,-1,-1,-1],"loss_changes":[2.6219127E-1,4.752031E-1,0E0,0E0,0E0],"parents":[2147483647,0,0,1,1],"right_children":[2,4,-1,-1,-1],"split_conditions":[2.4542743E-1,7.343708E-2,6.6378295E-2,6.258035E-2,-1.3080736E-1],"split_indices":[7,15,0,0,0],"split_type":[0,0,0,0,0],"sum_hessian":[4.8078403E0,2.834805E0,1.9730352E0,1.2326578E0,1.6021472E0],"tree_param":{"num_deleted":"0","num_feature":"30","num_nodes":"5","size_leaf_vector":"1"}},{"base_weights":[-2.833273E-3,-7.186869E-2,1.4240713E-1,-3.0403316E-2,9.138113E-2],"categories":[],"categories_nodes":[],"categories_segments":[],"categories_sizes":[],"default_left":[0,0,0,0,0],"id":33,"left_children":[1,-1,3,-1,-1],"loss_changes":[2.2759816E-1,0E0,1.9355021E-1,0E0,0E0],"parents":[2147483647,0,0,2,2],"right_children":[2,-1,4,-1,-1],"split_conditions":[1.6605431E-1,-7.186869E-2,3.6140725E-1,-3.0403316E-2,9.138113E-2],"split_indices":[26,0,21,0,0],"split_type":[0,0,0,0,0],"sum_hessian":[4.627343E0,1.5125697E0,3.1147735E0,1.3944097E0,1.7203639E0],"tree_param":{"num_deleted":"0","num_feature":"30","num_nodes":"5","size_leaf_vector":"1"}},{"base_weights":[-3.7412266E-3,-1.4815012E-1,7.4733734E-2,-9.975403E-2,3.7050605E-2],"categories":[],"categories_nodes":[],"categories_segments":[],"categories_sizes":[],"default_left":[0,0,0,0,0],"id":34,"left_children":[1,3,-1,-1,-1],"loss_changes":[2.3834369E-1,2.4832731E-1,0E0,0E0,0E0],"parents":[2147483647,0,0,1,1],"right_children":[2,4,-1,-1,-1],"split_conditions":[2.3554613E-1,4.393449E-1,7.4733734E-2,-9.975403E-2,3.7050605E-2],"split_indices":[3,24,0,0,0],"split_type":[0,0,0,0,0],"sum_hessian":[4.516675E0,3.1383815E0,1.3782938E0,1.7360964E0,1.402285E0],"tree_param":{"num_deleted":"0","num_feature":"30","num_nodes":"5","size_leaf_vector":"1"}},{"base_weights":[-9.2900515E-4,-1.5224637E-1,6.7307405E-2,-8.9118645E-2,3.59969E-2],"categories":[],"categories_nodes":[],"categories_segments":[],"categories_sizes":[],"default_left":[0,0,0,0,0],"id":35,"left_children":[1,3,-1,-1,-1],"loss_changes":[2.1760026E-1,1.8603835E-1,0E0,0E0,0E0],"parents":[2147483647,0,0,1,1],"right_children":[2,4,-1,-1,-1],"split_conditions":[5.149067E-2,2.4642529E-1,6.7307405E-2,-8.9118645E-2,3.59969E-2],"split_indices":[13,29,0,0,0],"split_type":[0,0,0,0,0],"sum_hessian":[4.381151E0,2.8147762E0,1.5663748E0,1.7778546E0,1.0369216E0],"tree_param":{"num_deleted":"0","num_feature":"30","num_nodes":"5","size_leaf_vector":"1"}},{"base_weights":[1.6979701E-3,-1.5663195E-1,6.0859036E-2,-7.977648E-2,1.7592626E-2],"categories":[],"categories_nodes":[],"categories_segments":[],"categories_sizes":[],"default_left":[0,0,0,0,0],"id":36,"left_children":[1,3,-1,-1,-1],"loss_changes":[1.998382E-1,9.833899E-2,0E0,0E0,0E0],"parents":[2147483647,0,0,1,1],"right_children":[2,4,-1,-1,-1],"split_conditions":[3.5475144E-1,2.6147994E-1,6.0859036E-2,-7.977648E-2,1.7592626E-2],"split_indices":[1,25,0,0,0],"split_type":[0,0,0,0,0],"sum_hessian":[4.2766275E0,2.5169816E0,1.7596459E0,1.5133957E0,1.0035859E0],"tree_param":{"num_deleted":"0","num_feature":"30","num_nodes":"5","size_leaf_vector":"1"}},{"base_weights":[7.4860686E-4,-6.8636924E-2,1.2752561E-1,-2.835887E-2,7.406296E-2],"categories":[],"categories_nodes":[],"categories_segments":[],"categories_sizes":[],"default_left":[0,0,0,0,0],"id":37,"left_children":[1,-1,3,-1,-1],"loss_changes":[1.8054779E-1,0E0,1.2916294E-1,0E0,0E0],"parents":[2147483647,0,0,2,2],"right_children":[2,-1,4,-1,-1],"split_conditions":[2.564074E-2,-6.8636924E-2,1.5910544E-1,-2.835887E-2,7.406296E-2],"split_indices":[13,0,26,0,0],"split_type":[0,0,0,0,0],"sum_hessian":[4.201728E0,1.2086757E0,2.993052E0,1.1190333E0,1.8740187E0],"tree_param":{"num_deleted":"0","num_feature":"30","num_nodes":"5","size_leaf_vector":"1"}},{"base_weights":[-3.837387E-3,7.562333E-2,-1.2859729E-1,-1.0936088E-1,4.009661E-2],"categories":[],"categories_nodes":[],"categories_segments":[],"categories_sizes":[],"default_left":[0,0,0,0,0],"id":38,"left_children":[1,-1,3,-1,-1],"loss_changes":[1.9590673E-1,0E0,3.0269653E-1,0E0,0E0],"parents":[2147483647,0,0,2,2],"right_children":[2,-1,4,-1,-1],"split_conditions":[1.2640329E-1,7.562333E-2,2.4542743E-1,-1.0936088E-1,4.009661E-2],"split_indices":[5,0,7,0,0],"split_type":[0,0,0,0,0],"sum_hessian":[4.120599E0,1.0160046E0,3.104594E0,1.4289771E0,1.6756169E0],"tree_param":{"num_deleted":"0","num_feature":"30","num_nodes":"5","size_leaf_vector":"1"}},{"base_weights":[-2.1292213E-3,1.4529105E-1,-5.6835417E-2,-3.4116182E-2,9.772475E-2],"categories":[],"categories_nodes":[],"categories_segments":[],"categories_sizes":[],"default_left":[0,0,0,0,0],"id":39,"left_children":[1,3,-1,-1,-1],"loss_changes":[1.6572407E-1,1.9439526E-1,0E0,0E0,0E0],"parents":[2147483647,0,0,1,1],"right_children":[2,4,-1,-1,-1],"split_conditions":[1.4208926E-1,5.718392E-2,-5.6835417E-2,-3.4116182E-2,9.772475E-2],"split_indices":[18,19,0,0,0],"split_type":[0,0,0,0,0],"sum_hessian":[4.0044565E0,2.3664598E0,1.6379964E0,1.1235913E0,1.2428685E0],"tree_param":{"num_deleted":"0","num_feature":"30","num_nodes":"5","size_leaf_vector":"1"}},{"base_weights":[2.3680126E-4,-1.3022174E-1,6.713714E-2,3.1850196E-2,-9.7878605E-2],"categories":[],"categories_nodes":[],"categories_segments":[],"categories_sizes":[],"default_left":[0,0,0,0,0],"id":40,"left_children":[1,3,-1,-1,-1],"loss_changes":[1.7273675E-1,2.0801872E-1,0E0,0E0,0E0],"parents":[2147483647,0,0,1,1],"right_children":[2,4,-1,-1,-1],"split_conditions":[2.3554613E-1,1.3533518E-1,6.713714E-2,3.1850196E-2,-9.7878605E-2],"split_indices":[3,18,0,0,0],"split_type":[0,0,0,0,0],"sum_hessian":[3.9236047E0,2.7413409E0,1.182264E0,1.4506096E0,1.2907313E0],"tree_param":{"num_deleted":"0","num_feature":"30","num_nodes":"5","size_leaf_vector":"1"}},{"base_weights":[-5.511702E-6,-1.5716974E-1,5.1151548E-2,-8.496542E-2,1.3532825E-2],"categories":[],"categories_nodes":[],"categories_segments":[],"categories_sizes":[],"default_left":[0,0,0,0,0],"id":41,"left_children":[1,3,-1,-1,-1],"loss_changes":[1.5614387E-1,9.008188E-2,0E0,0E0,0E0],"parents":[2147483647,0,0,1,1],"right_children":[2,4,-1,-1,-1],"split_conditions":[2.4916223E-1,4.3253805E-2,5.1151548E-2,-8.496542E-2,1.3532825E-2],"split_indices":[28,13,0,0,0],"split_type":[0,0,0,0,0],"sum_hessian":[3.8266575E0,2.0319738E0,1.7946837E0,1.0053593E0,1.0266147E0],"tree_param":{"num_deleted":"0","num_feature":"30","num_nodes":"5","size_leaf_vector":"1"}},{"base_weights":[-4.5301826E-3,-6.1112445E-2,1.2164868E-1,8.447711E-2,-3.0382222E-2],"categories":[],"categories_nodes":[],"categories_segments":[],"categories_sizes":[],"default_left":[0,0,0,0,0],"id":42,"left_children":[1,-1,3,-1,-1],"loss_changes":[1.4451344E-1,0E0,1.5482913E-1,0E0,0E0],"parents":[2147483647,0,0,2,2],"right_children":[2,-1,4,-1,-1],"split_conditions":[3.0090618E-1,-6.1112445E-2,1.16547E-1,8.447711E-2,-3.0382222E-2],"split_indices":[21,0,15,0,0],"split_type":[0,0,0,0,0],"sum_hessian":[3.7641408E0,1.2215073E0,2.5426335E0,1.3272146E0,1.215419E0],"tree_param":{"num_deleted":"0","num_feature":"30","num_nodes":"5","size_leaf_vector":"1"}},{"base_weights":[-4.5060515E-3,-6.076622E-2,1.3221553E-1,-2.3720142E-2,7.976113E-2],"categories":[],"categories_nodes":[],"categories_segments":[],"categories_sizes":[],"default_left":[0,0,0,0,0],"id":43,"left_children":[1,-1,3,-1,-1],"loss_changes":[1.5394855E-1,0E0,1.165667E-1,0E0,0E0],"parents":[2147483647,0,0,2,2],"right_children":[2,-1,4,-1,-1],"split_conditions":[2.8722558E-2,-6.076622E-2,3.7230298E-1,-2.3720142E-2,7.976113E-2],"split_indices":[13,0,4,0,0],"split_type":[0,0,0,0,0],"sum_hessian":[3.6964474E0,1.3129975E0,2.3834498E0,1.0817827E0,1.3016671E0],"tree_param":{"num_deleted":"0","num_feature":"30","num_nodes":"5","size_leaf_vector":"1"}},{"base_weights":[-4.05499E-3,-1.3694714E-1,5.0389614E-2,3.089142E-2,-8.973308E-2],"categories":[],"categories_nodes":[],"categories_segments":[],"categories_sizes":[],"default_left":[0,0,0,0,0],"id":44,"left_children":[1,3,-1,-1,-1],"loss_changes":[1.288341E-1,1.5384655E-1,0E0,0E0,0E0],"parents":[2147483647,0,0,1,1],"right_children":[2,4,-1,-1,-1],"split_conditions":[4.3009973E-1,1.6140114E-1,5.0389614E-2,3.089142E-2,-8.973308E-2],"split_indices":[24,5,0,0,0],"split_type":[0,0,0,0,0],"sum_hessian":[3.6295278E0,2.1626725E0,1.4668553E0,1.0194384E0,1.1432341E0],"tree_param":{"num_deleted":"0","num_feature":"30","num_nodes":"5","size_leaf_vector":"1"}},{"base_weights":[-5.0928006E-3,-1.2519431E-1,5.9751432E-2,2.4309484E-2,-8.674714E-2],"categories":[],"categories_nodes":[],"categories_segments":[],"categories_sizes":[],"default_left":[0,0,0,0,0],"id":45,"left_children":[1,3,-1,-1,-1],"loss_changes":[1.3681708E-1,1.4130372E-1,0E0,0E0,0E0],"parents":[2147483647,0,0,1,1],"right_children":[2,4,-1,-1,-1],"split_conditions":[2.3554613E-1,1.3533518E-1,5.9751432E-2,2.4309484E-2,-8.674714E-2],"split_indices":[3,18,0,0,0],"split_type":[0,0,0,0,0],"sum_hessian":[3.5605717E0,2.485982E0,1.0745896E0,1.3251075E0,1.1608746E0],"tree_param":{"num_deleted":"0","num_feature":"30","num_nodes":"5","size_leaf_vector":"1"}},{"base_weights":[-4.511118E-3,-6.047007E-2,1.20147385E-1,-2.5194673E-2,7.726866E-2],"categories":[],"categories_nodes":[],"categories_segments":[],"categories_sizes":[],"default_left":[0,0,0,0,0],"id":46,"left_children":[1,-1,3,-1,-1],"loss_changes":[1.3445464E-1,0E0,1.1630891E-1,0E0,0E0],"parents":[2147483647,0,0,2,2],"right_children":[2,-1,4,-1,-1],"split_conditions":[1.6605431E-1,-6.047007E-2,2.8459623E-1,-2.5194673E-2,7.726866E-2],"split_indices":[26,0,20,0,0],"split_type":[0,0,0,0,0],"sum_hessian":[3.4876192E0,1.1123317E0,2.3752875E0,1.1121019E0,1.2631856E0],"tree_param":{"num_deleted":"0","num_feature":"30","num_nodes":"5","size_leaf_vector":"1"}},{"base_weights":[-4.928948E-3,-1.4128251E-1,5.03615E-2,-5.6726333E-2,-6.828933E-3],"categories":[],"categories_nodes":[],"categories_segments":[],"categories_sizes":[],"default_left":[0,0,0,0,0],"id":47,"left_children":[1,3,-1,-1,-1],"loss_changes":[1.2786706E-1,1.2770861E-2,0E0,0E0,0E0],"parents":[2147483647,0,0,1,1],"right_children":[2,4,-1,-1,-1],"split_conditions":[3.5475144E-1,2.945571E-1,5.03615E-2,-5.6726333E-2,-6.828933E-3],"split_indices":[1,20,0,0,0],"split_type":[0,0,0,0,0],"sum_hessian":[3.4202461E0,2.0136836E0,1.4065626E0,1.0106272E0,1.0030564E0],"tree_param":{"num_deleted":"0","num_feature":"30","num_nodes":"5","size_leaf_vector":"1"}},{"base_weights":[-6.5273084E-3,-5.5576693E-2,1.2053595E-1,-1.6060574E-2,7.174061E-2],"categories":[],"categories_nodes":[],"categories_segments":[],"categories_sizes":[],"default_left":[0,0,0,0,0],"id":48,"left_children":[1,-1,3,-1,-1],"loss_changes":[1.2185903E-1,0E0,7.8191966E-2,0E0,0E0],"parents":[2147483647,0,0,2,2],"right_children":[2,-1,4,-1,-1],"split_conditions":[2.8722558E-2,-5.5576693E-2,2.5004736E-1,-1.6060574E-2,7.174061E-2],"split_indices":[13,0,17,0,0],"split_type":[0,0,0,0,0],"sum_hessian":[3.382648E0,1.2152654E0,2.1673827E0,1.1006043E0,1.0667785E0],"tree_param":{"num_deleted":"0","num_feature":"30","num_nodes":"5","size_leaf_vector":"1"}},{"base_weights":[-4.4870763E-3,-4.451483E-2,4.5317255E-2],"categories":[],"categories_nodes":[],"categories_segments":[],"categories_sizes":[],"default_left":[0,0,0],"id":49,"left_children":[1,-1,-1],"loss_changes":[1.19367816E-1,0E0,0E0],"parents":[2147483647,0,0],"right_children":[2,-1,-1],"split_conditions":[2.4916223E-1,-4.451483E-2,4.5317255E-2],"split_indices":[28,0,0],"split_type":[0,0,0],"sum_hessian":[3.3317237E0,1.7545849E0,1.5771388E0],"tree_param":{"num_deleted":"0","num_feature":"30","num_nodes":"3","size_leaf_vector":"1"}},{"base_weights":[-2.9824737E-3,-5.52096E-2,1.1174548E-1,7.334458E-2,-2.4293458E-2],"categories":[],"categories_nodes":[],"categories_segments":[],"categories_sizes":[],"default_left":[0,0,0,0,0],"id":50,"left_children":[1,-1,3,-1,-1],"loss_changes":[1.0990783E-1,0E0,1.0306662E-1,0E0,0E0],"parents":[2147483647,0,0,2,2],"right_children":[2,-1,4,-1,-1],"split_conditions":[3.0090618E-1,-5.52096E-2,1.16547E-1,7.334458E-2,-2.4293458E-2],"split_indices":[21,0,15,0,0],"split_type":[0,0,0,0,0],"sum_hessian":[3.3012462E0,1.0461959E0,2.2550502E0,1.176314E0,1.0787363E0],"tree_param":{"num_deleted":"0","num_feature":"30","num_nodes":"5","size_leaf_vector":"1"}},{"base_weights":[-3.4251679E-3,-3.9447032E-2,4.7489565E-2],"categories":[],"categories_nodes":[],"categories_segments":[],"categories_sizes":[],"default_left":[0,0,0],"id":51,"left_children":[1,-1,-1],"loss_changes":[1.0887549E-1,0E0,0E0],"parents":[2147483647,0,0],"right_children":[2,-1,-1],"split_conditions":[4.3009973E-1,-3.9447032E-2,4.7489565E-2],"split_indices":[24,0,0],"split_type":[0,0,0],"sum_hessian":[3.2518573E0,1.9191091E0,1.3327482E0],"tree_param":{"num_deleted":"0","num_feature":"30","num_nodes":"3","size_leaf_vector":"1"}},{"base_weights":[-4.8729483E-4,-5.2992072E-2,1.2266304E-1,-1.00332415E-2,6.636768E-2],"categories":[],"categories_nodes":[],"categories_segments":[],"categories_sizes":[],"default_left":[0,0,0,0,0],"id":52,"left_children":[1,-1,3,-1,-1],"loss_changes":[1.13274924E-1,0E0,5.4719407E-2,0E0,0E0],"parents":[2147483647,0,0,2,2],"right_children":[2,-1,4,-1,-1],"split_conditions":[2.8722558E-2,-5.2992072E-2,2.5004736E-1,-1.00332415E-2,6.636768E-2],"split_indices":[13,0,17,0,0],"split_type":[0,0,0,0,0],"sum_hessian":[3.2228587E0,1.1473521E0,2.0755064E0,1.058962E0,1.0165445E0],"tree_param":{"num_deleted":"0","num_feature":"30","num_nodes":"5","size_leaf_vector":"1"}},{"base_weights":[5.3680694E-4,-4.945079E-2,1.0439015E-1,-2.1072526E-2,6.582679E-2],"categories":[],"categories_nodes":[],"categories_segments":[],"categories_sizes":[],"default_left":[0,0,0,0,0],"id":53,"left_children":[1,-1,3,-1,-1],"loss_changes":[8.899036E-2,0E0,7.928562E-2,0E0,0E0],"parents":[2147483647,0,0,2,2],"right_children":[2,-1,4,-1,-1],"split_conditions":[1.6605431E-1,-4.945079E-2,2.8459623E-1,-2.1072526E-2,6.582679E-2],"split_indices":[26,0,20,0,0],"split_type":[0,0,0,0,0],"sum_hessian":[3.1796298E0,1.0000241E0,2.1796057E0,1.0202019E0,1.1594038E0],"tree_param":{"num_deleted":"0","num_feature":"30","num_nodes":"5","size_leaf_vector":"1"}},{"base_weights":[-6.323677E-4,-1.0591706E-1,4.750504E-2,-7.417946E-2,2.5492333E-2],"categories":[],"categories_nodes":[],"categories_segments":[],"categories_sizes":[],"default_left":[0,0,0,0,0],"id":54,"left_children":[1,3,-1,-1,-1],"loss_changes":[8.595924E-2,1.0427448E-1,0E0,0E0,0E0],"parents":[2147483647,0,0,1,1],"right_children":[2,4,-1,-1,-1],"split_conditions":[5.3115625E-2,4.4462788E-1,4.750504E-2,-7.417946E-2,2.5492333E-2],"split_indices":[13,24,0,0,0],"split_type":[0,0,0,0,0],"sum_hessian":[3.13344E0,2.0858722E0,1.047568E0,1.0287822E0,1.0570898E0],"tree_param":{"num_deleted":"0","num_feature":"30","num_nodes":"5","size_leaf_vector":"1"}},{"base_weights":[-9.5907005E-4,-3.690001E-2,4.509815E-2],"categories":[],"categories_nodes":[],"categories_segments":[],"categories_sizes":[],"default_left":[0,0,0],"id":55,"left_children":[1,-1,-1],"loss_changes":[9.386614E-2,0E0,0E0],"parents":[2147483647,0,0],"right_children":[2,-1,-1],"split_conditions":[3.5475144E-1,-3.690001E-2,4.509815E-2],"split_indices":[1,0,0],"split_type":[0,0,0],"sum_hessian":[3.0825124E0,1.809655E0,1.2728574E0],"tree_param":{"num_deleted":"0","num_feature":"30","num_nodes":"3","size_leaf_vector":"1"}},{"base_weights":[1.3667566E-3,-4.454523E-2,1.0248292E-1,4.7895633E-2,-1.7735291E-3],"categories":[],"categories_nodes":[],"categories_segments":[],"categories_sizes":[],"default_left":[0,0,0,0,0],"id":56,"left_children":[1,-1,3,-1,-1],"loss_changes":[7.6713264E-2,0E0,1.9627087E-2,0E0,0E0],"parents":[2147483647,0,0,2,2],"right_children":[2,-1,4,-1,-1],"split_conditions":[3.2617134E-1,-4.454523E-2,3.7424242E-1,4.7895633E-2,-1.7735291E-3],"split_indices":[4,0,8,0,0],"split_type":[0,0,0,0,0],"sum_hessian":[3.058526E0,1.0435575E0,2.0149686E0,1.0096073E0,1.0053614E0],"tree_param":{"num_deleted":"0","num_feature":"30","num_nodes":"5","size_leaf_vector":"1"}},{"base_weights":[1.3580521E-3,-3.034252E-2,4.5157615E-2],"categories":[],"categories_nodes":[],"categories_segments":[],"categories_sizes":[],"default_left":[0,0,0],"id":57,"left_children":[1,-1,-1],"loss_changes":[7.692712E-2,0E0,0E0],"parents":[2147483647,0,0],"right_children":[2,-1,-1],"split_conditions":[4.5922175E-1,-3.034252E-2,4.5157615E-2],"split_indices":[21,0,0],"split_type":[0,0,0],"sum_hessian":[3.0355964E0,1.9900788E0,1.0455176E0],"tree_param":{"num_deleted":"0","num_feature":"30","num_nodes":"3","size_leaf_vector":"1"}},{"base_weights":[4.6796063E-3,-4.465387E-2,3.2988336E-2],"categories":[],"categories_nodes":[],"categories_segments":[],"categories_sizes":[],"default_left":[0,0,0],"id":58,"left_children":[1,-1,-1],"loss_changes":[8.1281394E-2,0E0,0E0],"parents":[2147483647,0,0],"right_children":[2,-1,-1],"split_conditions":[2.8722558E-2,-4.465387E-2,3.2988336E-2],"split_indices":[13,0,0],"split_type":[0,0,0],"sum_hessian":[3.0161085E0,1.0586089E0,1.9574997E0],"tree_param":{"num_deleted":"0","num_feature":"30","num_nodes":"3","size_leaf_vector":"1"}},{"base_weights":[3.401618E-4,3.1212253E-2,-4.0907815E-2],"categories":[],"categories_nodes":[],"categories_segments":[],"categories_sizes":[],"default_left":[0,0,0],"id":59,"left_children":[1,-1,-1],"loss_changes":[7.081547E-2,0E0,0E0],"parents":[2147483647,0,0],"right_children":[2,-1,-1],"split_conditions":[8.3060406E-2,3.1212253E-2,-4.0907815E-2],"split_indices":[19,0,0],"split_type":[0,0,0],"sum_hessian":[2.9947217E0,1.8387495E0,1.1559721E0],"tree_param":{"num_deleted":"0","num_feature":"30","num_nodes":"3","size_leaf_vector":"1"}},{"base_weights":[-2.2205368E-3,-3.3778217E-2,4.1262798E-2],"categories":[],"categories_nodes":[],"categories_segments":[],"categories_sizes":[],"default_left":[0,0,0],"id":60,"left_children":[1,-1,-1],"loss_changes":[7.6855324E-2,0E0,0E0],"parents":[2147483647,0,0],"right_children":[2,-1,-1],"split_conditions":[2.7261975E-1,-3.3778217E-2,4.1262798E-2],"split_indices":[28,0,0],"split_type":[0,0,0],"sum_hessian":[2.978233E0,1.7726966E0,1.2055364E0],"tree_param":{"num_deleted":"0","num_feature":"30","num_nodes":"3","size_leaf_vector":"1"}},{"base_weights":[3.44854E-4,-3.174124E-2,3.864739E-2],"categories":[],"categories_nodes":[],"categories_segments":[],"categories_sizes":[],"default_left":[0,0,0],"id":61,"left_children":[1,-1,-1],"loss_changes":[6.760609E-2,0E0,0E0],"parents":[2147483647,0,0],"right_children":[2,-1,-1],"split_conditions":[2.4542743E-1,-3.174124E-2,3.864739E-2],"split_indices":[7,0,0],"split_type":[0,0,0],"sum_hessian":[2.9577591E0,1.7162768E0,1.2414824E0],"tree_param":{"num_deleted":"0","num_feature":"30","num_nodes":"3","size_leaf_vector":"1"}},{"base_weights":[2.0126596E-3,3.1931024E-2,-3.9261457E-2],"categories":[],"categories_nodes":[],"categories_segments":[],"categories_sizes":[],"default_left":[0,0,0],"id":62,"left_children":[1,-1,-1],"loss_changes":[6.8571E-2,0E0,0E0],"parents":[2147483647,0,0],"right_children":[2,-1,-1],"split_conditions":[1.4208926E-1,3.1931024E-2,-3.9261457E-2],"split_indices":[18,0,0],"split_type":[0,0,0],"sum_hessian":[2.9377527E0,1.7564845E0,1.1812681E0],"tree_param":{"num_deleted":"0","num_feature":"30","num_nodes":"3","size_leaf_vector":"1"}},{"base_weights":[-4.7200205E-4,-4.1954998E-2,2.914173E-2],"categories":[],"categories_nodes":[],"categories_segments":[],"categories_sizes":[],"default_left":[0,0,0],"id":63,"left_children":[1,-1,-1],"loss_changes":[6.6938706E-2,0E0,0E0],"parents":[2147483647,0,0],"right_children":[2,-1,-1],"split_conditions":[2.8722558E-2,-4.1954998E-2,2.914173E-2],"split_indices":[13,0,0],"split_type":[0,0,0],"sum_hessian":[2.9216778E0,1.0251497E0,1.8965282E0],"tree_param":{"num_deleted":"0","num_feature":"30","num_nodes":"3","size_leaf_vector":"1"}},{"base_weights":[-3.6465104E-3,-2.942839E-2,4.058752E-2],"categories":[],"categories_nodes":[],"categories_segments":[],"categories_sizes":[],"default_left":[0,0,0],"id":64,"left_children":[1,-1,-1],"loss_changes":[6.450047E-2,0E0,0E0],"parents":[2147483647,0,0],"right_children":[2,-1,-1],"split_conditions":[4.5922175E-1,-2.942839E-2,4.058752E-2],"split_indices":[21,0,0],"split_type":[0,0,0],"sum_hessian":[2.9039247E0,1.903752E0,1.0001726E0],"tree_param":{"num_deleted":"0","num_feature":"30","num_nodes":"3","size_leaf_vector":"1"}},{"base_weights":[3.2777461E-4,-4.0164404E-2,3.0404286E-2],"categories":[],"categories_nodes":[],"categories_segments":[],"categories_sizes":[],"default_left":[0,0,0],"id":65,"left_children":[1,-1,-1],"loss_changes":[6.627581E-2,0E0,0E0],"parents":[2147483647,0,0],"right_children":[2,-1,-1],"split_conditions":[3.3727545E-1,-4.0164404E-2,3.0404286E-2],"split_indices":[4,0,0],"split_type":[0,0,0],"sum_hessian":[2.8876011E0,1.1003896E0,1.7872114E0],"tree_param":{"num_deleted":"0","num_feature":"30","num_nodes":"3","size_leaf_vector":"1"}},{"base_weights":[-2.3140337E-3,-3.6689732E-2,3.0589908E-2],"categories":[],"categories_nodes":[],"categories_segments":[],"categories_sizes":[],"default_left":[0,0,0],"id":66,"left_children":[1,-1,-1],"loss_changes":[6.09086E-2,0E0,0E0],"parents":[2147483647,0,0],"right_children":[2,-1,-1],"split_conditions":[1.3347916E-1,-3.6689732E-2,3.0589908E-2],"split_indices":[23,0,0],"split_type":[0,0,0],"sum_hessian":[2.8713121E0,1.2547756E0,1.6165365E0],"tree_param":{"num_deleted":"0","num_feature":"30","num_nodes":"3","size_leaf_vector":"1"}},{"base_weights":[-3.2283748E-3,3.483865E-2,-3.1505544E-2],"categories":[],"categories_nodes":[],"categories_segments":[],"categories_sizes":[],"default_left":[0,0,0],"id":67,"left_children":[1,-1,-1],"loss_changes":[5.9006445E-2,0E0,0E0],"parents":[2147483647,0,0],"right_children":[2,-1,-1],"split_conditions":[1.16547E-1,3.483865E-2,-3.1505544E-2],"split_indices":[15,0,0],"split_type":[0,0,0],"sum_hessian":[2.8529346E0,1.2483163E0,1.6046184E0],"tree_param":{"num_deleted":"0","num_feature":"30","num_nodes":"3","size_leaf_vector":"1"}},{"base_weights":[-1.3965165E-3,-3.1170314E-2,3.8029265E-2],"categories":[],"categories_nodes":[],"categories_segments":[],"categories_sizes":[],"default_left":[0,0,0],"id":68,"left_children":[1,-1,-1],"loss_changes":[6.362306E-2,0E0,0E0],"parents":[2147483647,0,0],"right_children":[2,-1,-1],"split_conditions":[4.3009973E-1,-3.1170314E-2,3.8029265E-2],"split_indices":[24,0,0],"split_type":[0,0,0],"sum_hessian":[2.8404443E0,1.6833618E0,1.1570826E0],"tree_param":{"num_deleted":"0","num_feature":"30","num_nodes":"3","size_leaf_vector":"1"}},{"base_weights":[8.2550314E-4,-2.8552469E-2,4.0247254E-2],"categories":[],"categories_nodes":[],"categories_segments":[],"categories_sizes":[],"default_left":[0,0,0],"id":69,"left_children":[1,-1,-1],"loss_changes":[6.170343E-2,0E0,0E0],"parents":[2147483647,0,0],"right_children":[2,-1,-1],"split_conditions":[5.149067E-2,-2.8552469E-2,4.0247254E-2],"split_indices":[13,0,0],"split_type":[0,0,0],"sum_hessian":[2.8230693E0,1.8076931E0,1.0153762E0],"tree_param":{"num_deleted":"0","num_feature":"30","num_nodes":"3","size_leaf_vector":"1"}},{"base_weights":[3.6770683E-3,-2.888326E-2,3.7691984E-2],"categories":[],"categories_nodes":[],"categories_segments":[],"categories_sizes":[],"default_left":[0,0,0],"id":70,"left_children":[1,-1,-1],"loss_changes":[5.850399E-2,0E0,0E0],"parents":[2147483647,0,0],"right_children":[2,-1,-1],"split_conditions":[3.5475144E-1,-2.888326E-2,3.7691984E-2],"split_indices":[1,0,0],"split_type":[0,0,0],"sum_hessian":[2.8067946E0,1.6583197E0,1.1484749E0],"tree_param":{"num_deleted":"0","num_feature":"30","num_nodes":"3","size_leaf_vector":"1"}},{"base_weights":[4.9260454E-3,-3.4374353E-2,3.143962E-2],"categories":[],"categories_nodes":[],"categories_segments":[],"categories_sizes":[],"default_left":[0,0,0],"id":71,"left_children":[1,-1,-1],"loss_changes":[5.7263087E-2,0E0,0E0],"parents":[2147483647,0,0],"right_children":[2,-1,-1],"split_conditions":[3.821306E-1,-3.4374353E-2,3.143962E-2],"split_indices":[27,0,0],"split_type":[0,0,0],"sum_hessian":[2.7916386E0,1.2038476E0,1.587791E0],"tree_param":{"num_deleted":"0","num_feature":"30","num_nodes":"3","size_leaf_vector":"1"}},{"base_weights":[2.6793093E-3,4.015811E-2,-2.8224554E-2],"categories":[],"categories_nodes":[],"categories_segments":[],"categories_sizes":[],"default_left":[0,0,0],"id":72,"left_children":[1,-1,-1],"loss_changes":[6.0507536E-2,0E0,0E0],"parents":[2147483647,0,0],"right_children":[2,-1,-1],"split_conditions":[3.050505E-1,4.015811E-2,-2.8224554E-2],"split_indices":[8,0,0],"split_type":[0,0,0],"sum_hessian":[2.7747457E0,1.0151186E0,1.759627E0],"tree_param":{"num_deleted":"0","num_feature":"30","num_nodes":"3","size_leaf_vector":"1"}},{"base_weights":[5.0754147E-3,-2.7766805E-2,3.7338648E-2],"categories":[],"categories_nodes":[],"categories_segments":[],"categories_sizes":[],"default_left":[0,0,0],"id":73,"left_children":[1,-1,-1],"loss_changes":[5.536398E-2,0E0,0E0],"parents":[2147483647,0,0],"right_children":[2,-1,-1],"split_conditions":[2.7261975E-1,-2.7766805E-2,3.7338648E-2],"split_indices":[28,0,0],"split_type":[0,0,0],"sum_hessian":[2.7615514E0,1.6428272E0,1.1187243E0],"tree_param":{"num_deleted":"0","num_feature":"30","num_nodes":"3","size_leaf_vector":"1"}},{"base_weights":[6.142281E-3,-3.2956045E-2,2.9133132E-2],"categories":[],"categories_nodes":[],"categories_segments":[],"categories_sizes":[],"default_left":[0,0,0],"id":74,"left_children":[1,-1,-1],"loss_changes":[5.020083E-2,0E0,0E0],"parents":[2147483647,0,0],"right_children":[2,-1,-1],"split_conditions":[3.0833136E-2,-3.2956045E-2,2.9133132E-2],"split_indices":[13,0,0],"split_type":[0,0,0],"sum_hessian":[2.7465131E0,1.1159427E0,1.6305703E0],"tree_param":{"num_deleted":"0","num_feature":"30","num_nodes":"3","size_leaf_vector":"1"}},{"base_weights":[3.2843144E-3,2.9002028E-2,-3.4601405E-2],"categories":[],"categories_nodes":[],"categories_segments":[],"categories_sizes":[],"default_left":[0,0,0],"id":75,"left_children":[1,-1,-1],"loss_changes":[5.2508343E-2,0E0,0E0],"parents":[2147483647,0,0],"right_children":[2,-1,-1],"split_conditions":[1.4208926E-1,2.9002028E-2,-3.4601405E-2],"split_indices":[18,0,0],"split_type":[0,0,0],"sum_hessian":[2.7333543E0,1.6328636E0,1.1004907E0],"tree_param":{"num_deleted":"0","num_feature":"30","num_nodes":"3","size_leaf_vector":"1"}},{"base_weights":[7.9193624E-4,-3.454516E-2,2.9028652E-2],"categories":[],"categories_nodes":[],"categories_segments":[],"categories_sizes":[],"default_left":[0,0,0],"id":76,"left_children":[1,-1,-1],"loss_changes":[5.254645E-2,0E0,0E0],"parents":[2147483647,0,0],"right_children":[2,-1,-1],"split_conditions":[2.1880545E-1,-3.454516E-2,2.9028652E-2],"split_indices":[28,0,0],"split_type":[0,0,0],"sum_hessian":[2.721051E0,1.1417891E0,1.579262E0],"tree_param":{"num_deleted":"0","num_feature":"30","num_nodes":"3","size_leaf_vector":"1"}},{"base_weights":[-9.441689E-4,-2.840714E-2,3.387684E-2],"categories":[],"categories_nodes":[],"categories_segments":[],"categories_sizes":[],"default_left":[0,0,0],"id":77,"left_children":[1,-1,-1],"loss_changes":[5.0265063E-2,0E0,0E0],"parents":[2147483647,0,0],"right_children":[2,-1,-1],"split_conditions":[2.4542743E-1,-2.840714E-2,3.387684E-2],"split_indices":[7,0,0],"split_type":[0,0,0],"sum_hessian":[2.7071483E0,1.5771211E0,1.1300272E0],"tree_param":{"num_deleted":"0","num_feature":"30","num_nodes":"3","size_leaf_vector":"1"}},{"base_weights":[8.269566E-4,3.4417443E-2,-2.9845675E-2],"categories":[],"categories_nodes":[],"categories_segments":[],"categories_sizes":[],"default_left":[0,0,0],"id":78,"left_children":[1,-1,-1],"loss_changes":[5.359635E-2,0E0,0E0],"parents":[2147483647,0,0],"right_children":[2,-1,-1],"split_conditions":[1.16547E-1,3.4417443E-2,-2.9845675E-2],"split_indices":[15,0,0],"split_type":[0,0,0],"sum_hessian":[2.692033E0,1.1933708E0,1.4986624E0],"tree_param":{"num_deleted":"0","num_feature":"30","num_nodes":"3","size_leaf_vector":"1"}},{"base_weights":[1.8292788E-3,-2.5492104E-2,3.4706686E-2],"categories":[],"categories_nodes":[],"categories_segments":[],"categories_sizes":[],"default_left":[0,0,0],"id":79,"left_children":[1,-1,-1],"loss_changes":[4.620727E-2,0E0,0E0],"parents":[2147483647,0,0],"right_children":[2,-1,-1],"split_conditions":[4.89505E-2,-2.5492104E-2,3.4706686E-2],"split_indices":[13,0,0],"split_type":[0,0,0],"sum_hessian":[2.6806076E0,1.664979E0,1.0156286E0],"tree_param":{"num_deleted":"0","num_feature":"30","num_nodes":"3","size_leaf_vector":"1"}},{"base_weights":[3.8118477E-3,-2.7222114E-2,3.5950974E-2],"categories":[],"categories_nodes":[],"categories_segments":[],"categories_sizes":[],"default_left":[0,0,0],"id":80,"left_children":[1,-1,-1],"loss_changes":[5.111632E-2,0E0,0E0],"parents":[2147483647,0,0],"right_children":[2,-1,-1],"split_conditions":[4.3009973E-1,-2.7222114E-2,3.5950974E-2],"split_indices":[24,0,0],"split_type":[0,0,0],"sum_hessian":[2.6682637E0,1.5902449E0,1.0780188E0],"tree_param":{"num_deleted":"0","num_feature":"30","num_nodes":"3","size_leaf_vector":"1"}},{"base_weights":[5.0844313E-3,-2.6269918E-2,3.5412915E-2],"categories":[],"categories_nodes":[],"categories_segments":[],"categories_sizes":[],"default_left":[0,0,0],"id":81,"left_children":[1,-1,-1],"loss_changes":[4.8581097E-2,0E0,0E0],"parents":[2147483647,0,0],"right_children":[2,-1,-1],"split_conditions":[3.5475144E-1,-2.6269918E-2,3.5412915E-2],"split_indices":[1,0,0],"split_type":[0,0,0],"sum_hessian":[2.6542668E0,1.5817102E0,1.0725567E0],"tree_param":{"num_deleted":"0","num_feature":"30","num_nodes":"3","size_leaf_vector":"1"}},{"base_weights":[6.098823E-3,2.7040908E-2,-3.224028E-2],"categories":[],"categories_nodes":[],"categories_segments":[],"categories_sizes":[],"default_left":[0,0,0],"id":82,"left_children":[1,-1,-1],"loss_changes":[4.4440553E-2,0E0,0E0],"parents":[2147483647,0,0],"right_children":[2,-1,-1],"split_conditions":[8.3060406E-2,2.7040908E-2,-3.224028E-2],"split_indices":[19,0,0],"split_type":[0,0,0],"sum_hessian":[2.6414914E0,1.6366817E0,1.0048096E0],"tree_param":{"num_deleted":"0","num_feature":"30","num_nodes":"3","size_leaf_vector":"1"}},{"base_weights":[2.8431222E-3,-2.6783427E-2,3.3611245E-2],"categories":[],"categories_nodes":[],"categories_segments":[],"categories_sizes":[],"default_left":[0,0,0],"id":83,"left_children":[1,-1,-1],"loss_changes":[4.652837E-2,0E0,0E0],"parents":[2147483647,0,0],"right_children":[2,-1,-1],"split_conditions":[2.4542743E-1,-2.6783427E-2,3.3611245E-2],"split_indices":[7,0,0],"split_type":[0,0,0],"sum_hessian":[2.6311219E0,1.5260614E0,1.1050605E0],"tree_param":{"num_deleted":"0","num_feature":"30","num_nodes":"3","size_leaf_vector":"1"}},{"base_weights":[3.898243E-3,-3.0649913E-2,2.635673E-2],"categories":[],"categories_nodes":[],"categories_segments":[],"categories_sizes":[],"default_left":[0,0,0],"id":84,"left_children":[1,-1,-1],"loss_changes":[4.118569E-2,0E0,0E0],"parents":[2147483647,0,0],"right_children":[2,-1,-1],"split_conditions":[3.0833136E-2,-3.0649913E-2,2.635673E-2],"split_indices":[13,0,0],"split_type":[0,0,0],"sum_hessian":[2.6170762E0,1.0604784E0,1.5565978E0],"tree_param":{"num_deleted":"0","num_feature":"30","num_nodes":"3","size_leaf_vector":"1"}},{"base_weights":[1.5393775E-3,2.6077406E-2,-3.197811E-2],"categories":[],"categories_nodes":[],"categories_segments":[],"categories_sizes":[],"default_left":[0,0,0],"id":85,"left_children":[1,-1,-1],"loss_changes":[4.2562507E-2,0E0,0E0],"parents":[2147483647,0,0],"right_children":[2,-1,-1],"split_conditions":[1.4208926E-1,2.6077406E-2,-3.197811E-2],"split_indices":[18,0,0],"split_type":[0,0,0],"sum_hessian":[2.6063E0,1.5659269E0,1.0403732E0],"tree_param":{"num_deleted":"0","num_feature":"30","num_nodes":"3","size_leaf_vector":"1"}},{"base_weights":[-5.697865E-4,-3.2602794E-2,2.6980758E-2],"categories":[],"categories_nodes":[],"categories_segments":[],"categories_sizes":[],"default_left":[0,0,0],"id":86,"left_children":[1,-1,-1],"loss_changes":[4.496072E-2,0E0,0E0],"parents":[2147483647,0,0],"right_children":[2,-1,-1],"split_conditions":[2.1880545E-1,-3.2602794E-2,2.6980758E-2],"split_indices":[28,0,0],"split_type":[0,0,0],"sum_hessian":[2.596286E0,1.0916177E0,1.5046682E0],"tree_param":{"num_deleted":"0","num_feature":"30","num_nodes":"3","size_leaf_vector":"1"}},{"base_weights":[-1.9805992E-3,-2.641229E-2,3.15854E-2],"categories":[],"categories_nodes":[],"categories_segments":[],"categories_sizes":[],"default_left":[0,0,0],"id":87,"left_children":[1,-1,-1],"loss_changes":[4.2357825E-2,0E0,0E0],"parents":[2147483647,0,0],"right_children":[2,-1,-1],"split_conditions":[2.5004736E-1,-2.641229E-2,3.15854E-2],"split_indices":[17,0,0],"split_type":[0,0,0],"sum_hessian":[2.5843825E0,1.533365E0,1.0510175E0],"tree_param":{"num_deleted":"0","num_feature":"30","num_nodes":"3","size_leaf_vector":"1"}},{"base_weights":[6.30287E-5,3.0464841E-2,-2.6893163E-2],"categories":[],"categories_nodes":[],"categories_segments":[],"categories_sizes":[],"default_left":[0,0,0],"id":88,"left_children":[1,-1,-1],"loss_changes":[4.163806E-2,0E0,0E0],"parents":[2147483647,0,0],"right_children":[2,-1,-1],"split_conditions":[1.16547E-1,3.0464841E-2,-2.6893163E-2],"split_indices":[15,0,0],"split_type":[0,0,0],"sum_hessian":[2.5736654E0,1.1456099E0,1.4280555E0],"tree_param":{"num_deleted":"0","num_feature":"30","num_nodes":"3","size_leaf_vector":"1"}},{"base_weights":[1.0502825E-3,-3.0718615E-2,2.7862081E-2],"categories":[],"categories_nodes":[],"categories_segments":[],"categories_sizes":[],"default_left":[0,0,0],"id":89,"left_children":[1,-1,-1],"loss_changes":[4.3370396E-2,0E0,0E0],"parents":[2147483647,0,0],"right_children":[2,-1,-1],"split_conditions":[2.5942528E-1,-3.0718615E-2,2.7862081E-2],"split_indices":[22,0,0],"split_type":[0,0,0],"sum_hessian":[2.5647497E0,1.1519074E0,1.4128424E0],"tree_param":{"num_deleted":"0","num_feature":"30","num_nodes":"3","size_leaf_vector":"1"}},{"base_weights":[-7.312195E-5,-2.5906576E-2,3.2319095E-2],"categories":[],"categories_nodes":[],"categories_segments":[],"categories_sizes":[],"default_left":[0,0,0],"id":90,"left_children":[1,-1,-1],"loss_changes":[4.233778E-2,0E0,0E0],"parents":[2147483647,0,0],"right_children":[2,-1,-1],"split_conditions":[4.3009973E-1,-2.5906576E-2,3.2319095E-2],"split_indices":[24,0,0],"split_type":[0,0,0],"sum_hessian":[2.5515423E0,1.5277448E0,1.0237974E0],"tree_param":{"num_deleted":"0","num_feature":"30","num_nodes":"3","size_leaf_vector":"1"}},{"base_weights":[1.7698762E-3,-2.4955655E-2,3.2414243E-2],"categories":[],"categories_nodes":[],"categories_segments":[],"categories_sizes":[],"default_left":[0,0,0],"id":91,"left_children":[1,-1,-1],"loss_changes":[4.094843E-2,0E0,0E0],"parents":[2147483647,0,0],"right_children":[2,-1,-1],"split_conditions":[3.5475144E-1,-2.4955655E-2,3.2414243E-2],"split_indices":[1,0,0],"split_type":[0,0,0],"sum_hessian":[2.5398111E0,1.532252E0,1.0075592E0],"tree_param":{"num_deleted":"0","num_feature":"30","num_nodes":"3","size_leaf_vector":"1"}},{"base_weights":[3.3671404E-3,-2.4540959E-2,3.1835236E-2],"categories":[],"categories_nodes":[],"categories_segments":[],"categories_sizes":[],"default_left":[0,0,0],"id":92,"left_children":[1,-1,-1],"loss_changes":[3.9563857E-2,0E0,0E0],"parents":[2147483647,0,0],"right_children":[2,-1,-1],"split_conditions":[2.5004736E-1,-2.4540959E-2,3.1835236E-2],"split_indices":[17,0,0],"split_type":[0,0,0],"sum_hessian":[2.5289834E0,1.4942526E0,1.0347307E0],"tree_param":{"num_deleted":"0","num_feature":"30","num_nodes":"3","size_leaf_vector":"1"}},{"base_weights":[4.4465773E-3,3.0141545E-2,-2.478387E-2],"categories":[],"categories_nodes":[],"categories_segments":[],"categories_sizes":[],"default_left":[0,0,0],"id":93,"left_children":[1,-1,-1],"loss_changes":[3.771907E-2,0E0,0E0],"parents":[2147483647,0,0],"right_children":[2,-1,-1],"split_conditions":[1.16547E-1,3.0141545E-2,-2.478387E-2],"split_indices":[15,0,0],"split_type":[0,0,0],"sum_hessian":[2.5190349E0,1.1245805E0,1.3944544E0],"tree_param":{"num_deleted":"0","num_feature":"30","num_nodes":"3","size_leaf_vector":"1"}},{"base_weights":[4.6521793E-3,-2.8500803E-2,2.7464451E-2],"categories":[],"categories_nodes":[],"categories_segments":[],"categories_sizes":[],"default_left":[0,0,0],"id":94,"left_children":[1,-1,-1],"loss_changes":[3.9100952E-2,0E0,0E0],"parents":[2147483647,0,0],"right_children":[2,-1,-1],"split_conditions":[2.5942528E-1,-2.8500803E-2,2.7464451E-2],"split_indices":[22,0,0],"split_type":[0,0,0],"sum_hessian":[2.5109713E0,1.126163E0,1.3848083E0],"tree_param":{"num_deleted":"0","num_feature":"30","num_nodes":"3","size_leaf_vector":"1"}},{"base_weights":[2.9708473E-3,-2.4054652E-2,3.146196E-2],"categories":[],"categories_nodes":[],"categories_segments":[],"categories_sizes":[],"default_left":[0,0,0],"id":95,"left_children":[1,-1,-1],"loss_changes":[3.8057394E-2,0E0,0E0],"parents":[2147483647,0,0],"right_children":[2,-1,-1],"split_conditions":[4.3009973E-1,-2.4054652E-2,3.146196E-2],"split_indices":[24,0,0],"split_type":[0,0,0],"sum_hessian":[2.4989643E0,1.4934478E0,1.0055165E0],"tree_param":{"num_deleted":"0","num_feature":"30","num_nodes":"3","size_leaf_vector":"1"}},{"base_weights":[4.219864E-3,-2.284836E-2,3.0042738E-2],"categories":[],"categories_nodes":[],"categories_segments":[],"categories_sizes":[],"default_left":[0,0,0],"id":96,"left_children":[1,-1,-1],"loss_changes":[3.452339E-2,0E0,0E0],"parents":[2147483647,0,0],"right_children":[2,-1,-1],"split_conditions":[2.5004736E-1,-2.284836E-2,3.0042738E-2],"split_indices":[17,0,0],"split_type":[0,0,0],"sum_hessian":[2.4883482E0,1.4659379E0,1.0224104E0],"tree_param":{"num_deleted":"0","num_feature":"30","num_nodes":"3","size_leaf_vector":"1"}},{"base_weights":[5.0373813E-3,2.9965948E-2,-2.4523595E-2],"categories":[],"categories_nodes":[],"categories_segments":[],"categories_sizes":[],"default_left":[0,0,0],"id":97,"left_children":[1,-1,-1],"loss_changes":[3.6807284E-2,0E0,0E0],"parents":[2147483647,0,0],"right_children":[2,-1,-1],"split_conditions":[1.16547E-1,2.9965948E-2,-2.4523595E-2],"split_indices":[15,0,0],"split_type":[0,0,0],"sum_hessian":[2.4796653E0,1.1126258E0,1.3670396E0],"tree_param":{"num_deleted":"0","num_feature":"30","num_nodes":"3","size_leaf_vector":"1"}},{"base_weights":[5.1090955E-3,-2.6871042E-2,2.6164588E-2],"categories":[],"categories_nodes":[],"categories_segments":[],"categories_sizes":[],"default_left":[0,0,0],"id":98,"left_children":[1,-1,-1],"loss_changes":[3.4800604E-2,0E0,0E0],"parents":[2147483647,0,0],"right_children":[2,-1,-1],"split_conditions":[2.5942528E-1,-2.6871042E-2,2.6164588E-2],"split_indices":[22,0,0],"split_type":[0,0,0],"sum_hessian":[2.4717753E0,1.1057706E0,1.3660048E0],"tree_param":{"num_deleted":"0","num_feature":"30","num_nodes":"3","size_leaf_vector":"1"}},{"base_weights":[3.3817226E-3,-2.5715074E-2,2.7234288E-2],"categories":[],"categories_nodes":[],"categories_segments":[],"categories_sizes":[],"default_left":[0,0,0],"id":99,"left_children":[1,-1,-1],"loss_changes":[3.4732748E-2,0E0,0E0],"parents":[2147483647,0,0],"right_children":[2,-1,-1],"split_conditions":[3.654051E-1,-2.5715074E-2,2.7234288E-2],"split_indices":[21,0,0],"split_type":[0,0,0],"sum_hessian":[2.4609942E0,1.228181E0,1.2328132E0],"tree_param":{"num_deleted":"0","num_feature":"30","num_nodes":"3","size_leaf_vector":"1"}}]},"name":"gbtree"},"learner_model_param":{"base_score":"5.427888E-1","boost_from_average":"1","num_class":"0","num_feature":"30","num_target":"1"},"objective":{"name":"binary:logistic","reg_loss_param":{"scale_pos_weight":"2"}}},"version":[3,0,2]}